tree
version=v4
num_class=1
num_tree_per_iteration=1
label_index=0
max_feature_idx=44
objective=regression
feature_names=mean_var max_var top5_var low_var_count high_var_count very_high_var_count residual_mean residual_max lap_mean lap_max grad_mean grad_max edge_strength h_strength h_strength_max h_strength_min v_strength v_strength_max v_strength_min edge_orientation_conf row_second_diff row_second_diff_max row_second_diff_min col_second_diff col_second_diff_max col_second_diff_min second_diff_max second_diff_min_max profile_ringing_max profile_ringing_mean ringing_mean_max ringing_mean_min ringing_mean_min_max row_ringing_max row_ringing_min row_ringing_mean row_ringing_dyn_score row_ringing_d2_score row_ringing_sign_score col_ringing_max col_ringing_min col_ringing_mean col_ringing_dyn_score col_ringing_d2_score col_ringing_sign_score
feature_infos=[0:7799.8100000000004] [0:12800.110000000001] [0:12094.01] [0:64] [0:64] [0:64] [0:65.030000000000001] [0:159.44] [0:250.5] [0:588.36000000000001] [0:297.17000000000002] [0:616.22000000000003] [0:120.48999999999999] [0:120.48999999999999] [0:247.86000000000001] [0:54] [0:108.95999999999999] [0:248.63999999999999] [0:13] [0:1] [0:196.78999999999999] [0:227.69] [0:196.5] [0:205.86000000000001] [0:318.26999999999998] [0:148.09] [0:205.86000000000001] [0:1] [0:1] [0:0.95999999999999996] [0:1] [0:0.93999999999999995] [0:1] [0:1] [0:1] [0:1] [0:1] [0:1] [0:1] [0:1] [0:1] [0:1] [0:1] [0:1] [0:1]
tree_sizes=2737 2834 2846 2833 2815 2819 2840 2851 2822 2855 2829 2859 2872 2853 2866 2858 2862 2849 2893 2874 2865 2880 2879 2854 2889 2869 2917 2872 2865 2883 2854 2886 2856 2856 2887 2881 2883 2887 2893 2868 2864 2894 2893 2909 2902 2895 2896 2922 2903 2857 2911 2906 2896 2902 2914 2851 2879 2920 2873 2873 2877 2853 2892 2893 2888 2871 2916 2887 2886 2899 2887 2888 2916 2895 2881 2915 2891 2890 2891 2878 2867 1932 2889 2883 2880 2857 2867 2875 2877 2888 2909 2880 2888 2880 2878 2916 2871 2869 2901 2873 2877 2891 2914 2902 2888 2901 2903 2895 2893 2900 2872 2868 2869 2871 2891 2859 2887 2896 2848 2897 2905 2895 2860 2887 2858 2867 2880 2887 2888 2875

Tree=0
num_leaves=31
num_cat=0
split_feature=1 18 11 0 2 7 1 24 15 19 14 2 21 3 21 14 18 22 3 19 9 2 9 11 5 38 2 30 5 27
split_gain=880.913 228.561 98.993 60.9691 37.7996 50.2319 35.2745 49.2588 22.8939 21.9979 14.5944 13.716 11.6841 11.2883 10.2226 9.70091 13.4147 9.45246 9.04845 8.34331 8.37189 10.3396 7.63472 7.25519 7.15129 7.04377 6.47957 6.10159 5.95851 5.48586
threshold=1258.9900000000002 1.0000000180025095e-35 309.36000000000007 5378.6500000000005 2712.0250000000005 44.695000000000007 656.55000000000007 12.095000000000001 1.0000000180025095e-35 0.97500000000000009 56.400000000000006 4253.6950000000006 27.515000000000004 12.500000000000002 27.265000000000004 47.955000000000005 0.89500000000000013 12.175000000000002 48.500000000000007 0.96500000000000008 91.50500000000001 1571.1300000000003 155.71500000000003 371.50000000000006 14.500000000000002 0.14500000000000005 7357.8050000000012 0.69500000000000006 22.500000000000004 0.74500000000000011
decision_type=2 2 2 2 2 2 2 2 2 2 2 2 2 2 2 2 2 2 2 2 2 2 2 2 2 2 2 2 2 2
left_child=6 3 8 4 5 19 -1 14 15 10 13 12 -10 -6 -8 -3 22 -7 25 20 -2 -22 -17 26 -14 -9 -4 -26 -24 -20
right_child=1 2 23 -5 9 17 7 18 11 -11 -12 -13 24 -15 -16 16 -18 -19 29 -21 21 -23 28 -25 27 -27 -28 -29 -30 -31
leaf_value=0.41348809564857991 0.49607465951123286 0.43037401170789397 0.4622540354949628 0.40817240445365982 0.41550658790855349 0.45654480982601503 0.48056080971407877 0.43470301590788391 0.45013158687664812 0.41724269896792449 0.49787677957359472 0.46294976831281831 0.4135389953745997 0.4802492330378958 0.41047941414533151 0.46792020423268482 0.49363158558024706 0.42418714320540835 0.48244737538724675 0.42113158774091541 0.46483465811081737 0.48809879885989105 0.42725834812170405 0.49326984925662254 0.48113158595277611 0.41265332712402208 0.50395767222902743 0.42730805814507755 0.48113158595277611 0.42213158771111314
leaf_weight=3711 527 165 196 98 32 242 219 203 125 36 2653 88 702 170 23 123 88 144 38 20 293 549 142 311 28 506 46 85 24 25
leaf_count=3711 527 165 196 98 32 242 219 203 125 36 2653 88 702 170 23 123 88 144 38 20 293 549 142 311 28 506 46 85 24 25
internal_value=0.451257 0.474071 0.446782 0.486232 0.487872 0.476385 0.418005 0.434534 0.433966 0.494924 0.495904 0.425198 0.421664 0.469993 0.4739 0.450597 0.459447 0.444474 0.422194 0.485253 0.48619 0.480003 0.449038 0.483166 0.417297 0.418967 0.470181 0.440645 0.435047 0.458513
internal_weight=11612 6887 2123 4764 4666 1775 4725 1014 1570 2891 2855 1028 940 202 242 542 377 386 772 1389 1369 842 289 553 815 709 242 113 166 63
internal_count=11612 6887 2123 4764 4666 1775 4725 1014 1570 2891 2855 1028 940 202 242 542 377 386 772 1389 1369 842 289 553 815 709 242 113 166 63
is_linear=0
shrinkage=1


Tree=1
num_leaves=31
num_cat=0
split_feature=1 18 11 0 2 9 3 19 44 5 2 9 14 1 23 14 18 19 3 3 0 9 7 34 42 3 25 12 11 2
split_gain=715.973 194.297 84.5583 47.7898 40.3168 41.3547 19.7715 17.8183 16.8872 16.2283 13.5504 15.7311 13.0246 12.2896 25.7131 11.8215 10.5081 9.3428 9.14352 8.93807 8.50723 7.966 7.03653 6.91293 6.87039 6.50297 6.23664 6.2034 5.90873 5.74551
threshold=1069.2350000000004 1.0000000180025095e-35 309.36000000000007 5378.6500000000005 2712.0250000000005 171.00500000000002 13.500000000000002 0.97500000000000009 0.48000000000000004 17.500000000000004 1254.7950000000003 82.545000000000016 62.050000000000004 592.24500000000012 4.6750000000000007 56.400000000000006 0.28500000000000009 0.96500000000000008 12.500000000000002 39.500000000000007 502.46000000000009 64.085000000000022 22.425000000000004 0.60500000000000009 0.59500000000000008 48.500000000000007 2.7250000000000005 23.485000000000003 336.04000000000002 4910.4550000000008
decision_type=2 2 2 2 2 2 2 2 2 2 2 2 2 2 2 2 2 2 2 2 2 2 2 2 2 2 2 2 2 2
left_child=13 3 6 4 5 10 9 15 16 -3 11 -2 -11 -1 21 18 -8 -12 -6 24 -18 -15 26 -14 -7 -13 -16 -26 -4 -30
right_child=1 2 28 -5 7 19 8 -9 -10 12 17 25 23 14 22 -17 20 -19 -20 -21 -22 -23 -24 -25 27 -27 -28 -29 29 -31
leaf_value=-0.034323899963807566 0.034974933730572776 -0.031024464353172194 0.0080908462539449472 -0.038776423614852285 -0.032175660133361816 -0.030938520410357141 -0.021685727213739969 -0.030613159471087989 0.028767192925232044 -0.043756378138506857 0.034376976272948473 -0.011510969521385609 0.025245518219180224 0.043339573219418531 0.015469067389110351 0.041957517539470815 -0.01491969260450912 -0.032926617775644575 0.026092724449494304 0.023259580787271264 0.031750839026201343 -0.010668244619261136 -0.035761425964924633 -0.018852257430553437 0.033808027443132903 0.022804967235577733 -0.022726819134945245 -0.015569183307808716 0.046101075324040015 0.023245836087202622
leaf_weight=3573 194 838 111 98 32 169 311 36 138 54 1156 202 123 72 53 2653 73 21 170 64 84 44 439 50 38 76 221 77 206 236
leaf_count=3573 194 838 111 98 32 169 311 36 138 54 1156 202 123 72 53 2653 73 21 170 64 84 44 439 50 38 76 221 77 206 236
internal_value=4.57866e-10 0.0194023 -0.00517729 0.0303659 0.0317522 0.0208249 -0.0163945 0.0393004 -0.00197435 -0.0245998 0.0274357 0.013121 -0.000882196 -0.0317788 -0.0208094 0.0401819 -0.0110392 0.0331761 0.0168621 -0.0105003 0.0100505 0.0228538 -0.0279131 0.0125005 -0.0181082 -0.00212963 -0.0153386 0.000746765 0.0287178 0.0338978
internal_weight=11612 7210 2224 4986 4888 1997 1671 2891 606 1065 1649 472 227 4402 829 2855 468 1177 202 348 157 116 713 173 284 278 274 115 553 442
internal_count=11612 7210 2224 4986 4888 1997 1671 2891 606 1065 1649 472 227 4402 829 2855 468 1177 202 348 157 116 713 173 284 278 274 115 553 442
is_linear=0
shrinkage=0.1


Tree=2
num_leaves=31
num_cat=0
split_feature=1 18 11 0 1 24 2 9 15 1 19 44 14 14 18 3 9 7 3 22 4 9 19 4 5 3 42 3 42 15
split_gain=580.902 148.506 63.9594 40.4991 26.5125 33.7546 21.8892 33.502 18.3151 15.1095 14.4328 10.8821 9.5754 9.00032 9.84715 8.69734 8.37205 8.24903 7.40625 6.9248 7.32358 6.56394 7.14643 7.53591 6.0145 5.70244 5.64497 6.80681 5.44092 5.33493
threshold=1316.4650000000004 1.0000000180025095e-35 336.04000000000002 5378.6500000000005 656.55000000000007 12.095000000000001 2712.0250000000005 172.46000000000001 1.0000000180025095e-35 7321.6550000000007 0.97500000000000009 0.73000000000000009 56.400000000000006 47.955000000000005 0.89500000000000013 39.500000000000007 117.13000000000001 22.725000000000005 12.500000000000002 4.7650000000000006 20.500000000000004 74.075000000000017 0.95500000000000007 22.500000000000004 13.500000000000002 31.500000000000004 0.58500000000000008 35.500000000000007 0.59500000000000008 1.0000000180025095e-35
decision_type=2 2 2 2 2 2 2 2 2 2 2 2 2 2 2 2 2 2 2 2 2 2 2 2 2 2 2 2 2 2
left_child=4 3 8 6 -1 17 7 21 13 11 12 16 18 25 26 28 -10 -6 -8 20 -7 -2 23 -23 -18 -3 27 -15 -9 -14
right_child=1 2 -4 -5 5 19 10 15 9 -11 -12 -13 29 14 -16 -17 24 -19 -20 -21 -22 22 -24 -25 -26 -27 -28 -29 -30 -31
leaf_value=-0.030614790649659485 0.041416937892091575 -0.027719465414370138 0.030508044611544632 -0.034898780803291167 0.027990555821968417 -0.016667056987794599 -0.028958094120025635 -0.028281069261915731 0.0059892481709101116 0.045661337761317984 -0.027551843722661336 0.022081537460381131 0.040666115977599573 -0.026213051624668457 0.038367625035737693 0.027404212585666721 -0.031775819359487194 -0.015361467961754119 0.023483451429535361 -0.030889691399547444 0.03559278311400578 0.01810335847632975 -0.03488586187362671 0.034915817350968249 -0.012859212680979892 0.015997515580593012 0.013227882998043231 0.027914487520853678 0.00067208886146545414 0.030837999044784476
leaf_weight=3711 283 127 442 98 203 356 32 149 83 34 36 53 1869 103 95 57 692 56 170 462 29 611 20 473 222 39 178 30 115 784
leaf_count=3711 283 127 442 98 203 356 32 149 83 34 36 53 1869 103 95 57 692 56 170 462 29 611 20 473 222 39 178 30 115 784
internal_value=3.57002e-10 0.0188318 -0.00328819 0.0287121 -0.0265647 -0.0129751 0.0300676 0.021092 -0.0123087 -0.0199481 0.0353703 -0.0220726 0.0361637 0.00216872 0.0101896 -0.0080204 -0.0244198 0.0186171 0.0151759 -0.0226356 -0.0127306 0.0278296 0.0243466 0.0254394 -0.0271812 -0.0174486 0.00158217 -0.0140038 -0.0156689 0.0377618
internal_weight=11612 6795 2098 4697 4817 1106 4599 1708 1656 1084 2891 1050 2855 572 406 321 997 259 202 847 385 1387 1104 1084 914 166 311 133 264 2653
internal_count=11612 6795 2098 4697 4817 1106 4599 1708 1656 1084 2891 1050 2855 572 406 321 997 259 202 847 385 1387 1104 1084 914 166 311 133 264 2653
is_linear=0
shrinkage=0.1


Tree=3
num_leaves=31
num_cat=0
split_feature=1 18 11 0 2 7 3 44 19 5 14 42 2 8 14 1 23 14 4 22 31 9 22 2 42 44 1 19 15 14
split_gain=471.818 128.294 56.0278 31.4254 25.8994 29.4783 14.9738 12.7605 11.6906 10.2952 9.3058 8.67765 7.935 10.6343 7.88068 7.83851 18.0187 7.07857 6.22234 6.17813 6.12842 5.92612 5.88417 5.94108 5.26859 5.13897 9.93458 4.76148 4.67315 4.6208
threshold=1069.2350000000004 1.0000000180025095e-35 307.07000000000005 5378.6500000000005 2712.0250000000005 43.885000000000012 13.500000000000002 0.48000000000000004 0.97500000000000009 17.500000000000004 62.050000000000004 0.70500000000000007 1304.825 17.065000000000001 42.755000000000003 592.24500000000012 4.6750000000000007 31.035000000000004 21.500000000000004 36.405000000000008 0.13500000000000004 64.085000000000022 13.805000000000001 1601.3950000000002 0.055000000000000007 0.52000000000000013 6681.3350000000009 0.95500000000000007 1.0000000180025095e-35 34.935000000000009
decision_type=2 2 2 2 2 2 2 2 2 2 2 2 2 2 2 2 2 2 2 2 2 2 2 2 2 2 2 2 2 2
left_child=15 3 6 4 5 12 9 11 14 -3 -11 -8 13 -2 20 -1 21 -13 -15 -12 -6 -17 23 -7 -18 26 -4 29 -16 -14
right_child=1 2 25 -5 8 22 7 -9 -10 10 19 17 27 18 28 16 24 -19 -20 -21 -22 -23 -24 -25 -26 -27 -28 -29 -30 -31
leaf_value=-0.027830030749299902 0.028496119654328259 -0.025773740778426216 -0.01409047689774762 -0.031408905009834134 0.021779766535184472 -0.020234213665474295 -0.018423859708202192 0.025990971922874452 -0.024796658092074927 -0.037303828365272948 0.020588951702265778 -0.026973984037574967 0.01056642021084654 -0.0084958421048663916 0.036294800950267207 0.037183317997389373 0.012752033731876276 0.02270282990912087 0.028759236869059113 -0.027327873251017404 -0.028627000398495618 -0.0093990425494584178 -0.022985926529635554 0.010885615201196939 -0.025051256496934585 0.029285039000022106 0.033044981511159879 -0.018729062165532794 0.027220292691869725 0.031751097250713532
leaf_weight=3573 239 835 92 98 83 86 312 136 36 54 129 38 116 210 1935 72 39 117 57 34 34 44 138 214 674 390 87 21 803 916
leaf_count=3573 239 835 92 98 83 86 312 136 36 54 129 38 116 210 1935 72 39 117 57 34 34 44 138 214 674 390 87 21 803 916
internal_value=9.18811e-11 0.0157504 -0.00422264 0.0246593 0.0257834 0.0170253 -0.0135292 -0.000965593 0.0318333 -0.0207307 -0.00132525 -0.0088159 0.0234651 0.0131734 0.0325474 -0.0257974 -0.0170369 0.010524 -0.000542511 0.010594 0.00713165 0.0195141 -0.00589653 0.0019646 -0.0229835 0.0228467 0.00881894 0.0284106 0.0336334 0.0293699
internal_weight=11612 7210 2224 4986 4888 1997 1655 603 2891 1052 217 467 1559 506 2855 4402 829 155 267 163 117 116 438 300 713 569 179 1053 2738 1032
internal_count=11612 7210 2224 4986 4888 1997 1655 603 2891 1052 217 467 1559 506 2855 4402 829 155 267 163 117 116 438 300 713 569 179 1053 2738 1032
is_linear=0
shrinkage=0.1


Tree=4
num_leaves=31
num_cat=0
split_feature=1 18 11 3 0 26 2 21 22 0 42 9 14 3 0 9 44 13 22 14 36 1 26 23 1 11 4 8 7 5
split_gain=382.6 104.83 46.1211 25.5133 22.2294 27.1852 19.2391 18.3322 13.1803 11.2035 10.1111 9.2047 7.93083 6.35839 8.40969 11.5165 6.4177 6.08396 6.01814 5.78858 5.53204 5.39844 18.2647 6.04098 11.5956 5.29378 5.28242 8.10207 4.84724 4.75179
threshold=1016.5350000000002 1.0000000180025095e-35 307.07000000000005 9.5000000000000018 1083.6150000000002 74.075000000000017 1601.3950000000002 27.010000000000002 11.195000000000002 1399.5300000000002 0.50500000000000012 303.43500000000006 38.07500000000001 39.500000000000007 502.46000000000009 140.00500000000002 0.19000000000000003 28.815000000000001 36.405000000000008 47.955000000000005 0.59500000000000008 12.885000000000002 1.175 4.7750000000000012 379.80500000000001 142.23000000000005 36.500000000000007 54.345000000000006 22.425000000000004 15.500000000000002
decision_type=2 2 2 2 2 2 2 2 2 2 2 2 2 2 2 2 2 2 2 2 2 2 2 2 2 2 2 2 2 2
left_child=21 3 8 4 26 -6 7 20 13 -10 -9 -7 25 14 -3 19 -15 -17 -11 -16 -5 -1 -23 24 -24 -8 -2 -28 -26 -14
right_child=1 2 -4 6 5 11 12 10 9 18 -12 -13 29 16 15 17 -18 -19 -20 -21 -22 22 23 -25 28 -27 27 -29 -30 -31
leaf_value=-0.03028246244631316 -0.036911671819551933 -0.022296425613264243 0.020562002293254875 0.016881563071876046 0.02867076797410846 -0.02250859955000499 -0.02530281269872511 -0.020297324255108835 -0.026545896079206606 0.021566906786826722 0.03727182240949737 0.021116254283831671 0.02675069274257932 -0.023999946791192758 -0.0037726698443293575 -0.011793909633577352 0.037340755083344203 0.039172489166259768 -0.026058592169712753 0.038833418268906447 0.041590744694438547 0.043786804874738058 -0.02055163395866344 -0.025794413437680921 0.018939587551614512 0.017325327474705495 0.020905419226203648 -0.033911440234917864 -0.026196286777655283 0.034754958942486973
leaf_weight=950 106 240 569 537 512 189 37 200 686 83 36 65 1713 23 48 371 66 25 39 95 109 42 1059 2114 115 137 56 52 30 1308
leaf_count=950 106 240 569 537 512 189 37 200 686 83 36 65 1713 23 48 371 66 25 39 95 109 42 1059 2114 115 137 56 52 30 1308
internal_value=5.10992e-10 0.0139456 -0.0040373 0.0219289 0.00744136 0.0154019 0.0254113 0.0123369 -0.0123887 -0.0215801 -0.0115156 -0.0113448 0.0290206 -0.00383271 -0.00672565 0.000207529 0.0214887 -0.00857633 0.00634236 0.0245321 0.0210508 -0.0236266 -0.0217448 -0.0225743 -0.0169203 0.00826072 -0.0210529 -0.00548788 0.00960113 0.0302163
internal_weight=11612 7302 2245 5057 980 766 4077 882 1676 808 236 254 3195 868 779 539 89 396 122 143 646 4310 3360 3318 1204 174 214 108 145 3021
internal_count=11612 7302 2245 5057 980 766 4077 882 1676 808 236 254 3195 868 779 539 89 396 122 143 646 4310 3360 3318 1204 174 214 108 145 3021
is_linear=0
shrinkage=0.1


Tree=5
num_leaves=31
num_cat=0
split_feature=1 18 11 0 1 8 5 3 3 9 4 30 44 5 14 22 40 7 2 9 44 30 0 3 18 2 4 15 9 4
split_gain=311.319 78.9181 35.4063 22.7769 14.1729 19.0328 13.5195 25.7677 12.6957 11.86 14.3833 11.4059 10.8313 10.3151 7.70969 7.2016 6.48635 6.79707 6.17793 5.87729 8.17795 5.28279 5.52789 5.15809 6.40299 4.60306 6.85563 4.64556 4.4588 11.6725
threshold=1316.4650000000004 1.0000000180025095e-35 336.04000000000002 4703.0750000000016 772.11500000000012 17.065000000000001 15.500000000000002 12.500000000000002 14.500000000000002 152.01000000000002 33.500000000000007 0.88500000000000012 0.31000000000000005 17.500000000000004 56.400000000000006 33.940000000000005 0.12500000000000003 22.725000000000005 6735.0050000000001 99.770000000000024 0.31000000000000005 0.71500000000000008 2137.5450000000005 31.500000000000004 0.21500000000000002 4910.4550000000008 55.500000000000007 0.115 143.58500000000001 36.500000000000007
decision_type=2 2 2 2 2 2 2 2 2 2 2 2 2 2 2 2 2 2 2 2 2 2 2 2 2 2 2 2 2 2
left_child=4 3 8 6 -1 16 7 9 13 10 -2 -8 -10 28 -15 19 17 -6 -13 -9 -21 -16 -23 24 -14 -4 -27 -28 29 -3
right_child=1 2 25 -5 5 -7 11 15 12 -11 -12 18 23 14 21 -17 -18 -19 -20 20 -22 22 -24 -25 -26 26 27 -29 -30 -31
leaf_value=-0.022084455875951408 -0.031273366072598625 -0.024580165523974625 0.033729190140673264 -0.019962865701227479 0.030556936657916735 -0.017476021933628513 0.030890443965570252 0.029772911210053252 -0.010028950154144994 -0.023470393106341362 0.032704178395524496 -0.013262441095552947 -0.015097582210665164 -0.032887924876477979 0.039001594515556987 -0.030836917345340439 -0.024652712973388467 -0.0088071912527084347 0.030753206585844357 0.013501285748674692 0.028512745342587915 -0.013861392896908981 0.020744076227567285 0.038879615535219035 0.024043517798747659 0.02677425791477335 -0.034926032235747889 0.010889205280339945 -0.024672734981149802 0.02959690457683499
leaf_weight=3896 51 122 206 132 171 654 1742 694 281 200 113 95 69 54 47 26 37 59 48 1038 558 104 83 83 106 145 38 53 648 59
leaf_count=3896 51 122 206 132 171 654 1742 694 281 200 113 95 69 54 47 26 37 59 48 1038 558 104 83 83 106 145 38 53 648 59
internal_value=-3.01052e-10 0.0137862 -0.0023389 0.0209887 -0.0194471 -0.00829083 0.0221728 0.0176088 -0.00905039 -0.00712486 0.0128087 0.0286617 0.00355427 -0.0151327 0.00117118 0.0214962 0.0142077 0.0204592 0.00151204 0.0220903 0.0187497 0.00903098 0.00149825 0.0183484 0.00861074 0.0228064 0.0132721 -0.00824243 -0.0207967 -0.00692024
internal_weight=11612 6795 2098 4697 4817 921 4565 2680 1656 364 164 1885 539 1117 288 2316 267 230 143 2290 1596 234 187 258 175 442 236 91 829 181
internal_count=11612 6795 2098 4697 4817 921 4565 2680 1656 364 164 1885 539 1117 288 2316 267 230 143 2290 1596 234 187 258 175 442 236 91 829 181
is_linear=0
shrinkage=0.1


Tree=6
num_leaves=31
num_cat=0
split_feature=1 18 11 0 1 7 15 1 15 4 3 44 19 20 14 42 9 27 40 14 36 21 3 11 14 29 3 2 2 1
split_gain=252.235 69.3763 31.2579 17.8757 16.2277 19.5816 11.0841 9.17965 7.44147 7.27833 16.7282 6.55629 6.50646 5.88481 5.82949 6.90193 5.61286 5.23327 5.43191 4.61107 4.4099 5.64733 4.26708 4.20998 4.05349 6.7539 3.94102 3.72848 6.1096 3.68514
threshold=1016.5350000000002 1.0000000180025095e-35 336.04000000000002 5378.6500000000005 3054.2400000000002 43.885000000000012 1.0000000180025095e-35 7321.6550000000007 4.5000000000000009 22.500000000000004 28.500000000000004 0.77000000000000013 0.96500000000000008 12.915000000000001 47.955000000000005 0.58500000000000008 82.545000000000016 0.22500000000000003 0.42500000000000004 46.785000000000004 0.48500000000000004 20.070000000000004 35.500000000000007 120.46000000000002 56.400000000000006 0.39500000000000007 11.500000000000002 4910.4550000000008 7357.8050000000012 12.885000000000002
decision_type=2 2 2 2 2 2 2 2 2 2 2 2 2 2 2 2 2 2 2 2 2 2 2 2 2 2 2 2 2 2
left_child=20 3 6 4 5 9 14 11 24 10 23 13 26 19 -3 22 -12 -7 -19 -8 29 -22 -16 -2 25 -6 -11 -4 -29 -1
right_child=1 2 27 -5 8 17 7 -9 -10 12 16 -13 -14 -15 15 -17 -18 18 -20 -21 21 -23 -24 -25 -26 -27 -28 28 -30 -31
leaf_value=-0.025045771209817186 0.014410693126340066 -0.012529846092667244 0.0303562705811945 -0.024475464589741768 0.024134529873627384 -0.039193192901818649 -0.013124032704918473 0.036360885290538568 -0.029892274851982412 0.011506134631304905 0.026396731040227123 0.025634979870584274 -0.024223273277282714 -0.019954537520267695 -0.016993097384129803 0.018346385195337492 0.0099510849914226825 -0.0078698716299262592 0.029139908221032886 0.031356889154852893 0.03834996362527212 -0.024094780108758384 0.020568724572658542 -0.026790926557394769 0.024935763731388668 -0.011277704940122717 0.0322064934952839 -0.0030886972707415386 0.029165102758190849 -0.017978153085795263
leaf_weight=950 31 198 206 98 147 46 54 34 26 116 371 36 25 1015 124 261 471 334 45 41 30 28 40 124 2694 85 444 126 110 3302
leaf_count=950 31 198 206 98 147 46 54 34 26 116 371 36 25 1015 124 261 471 334 45 41 30 28 40 124 2694 85 444 126 110 3302
internal_value=1.64513e-10 0.0113231 -0.00330615 0.0178176 0.0186534 0.0117157 -0.00914847 -0.0148456 0.0233702 0.0168354 0.0116397 -0.0163648 0.0256903 -0.017727 0.00164222 0.00824473 0.0171973 -0.00734148 -0.00347557 0.006073 -0.0191836 0.00820423 -0.00783168 -0.0185506 0.0238435 0.0111602 0.0279186 0.0205257 0.0119449 -0.0195572
internal_weight=11612 7302 2245 5057 4959 2007 1803 1180 2952 1582 997 1146 585 1110 623 425 842 425 379 95 4310 58 164 155 2926 232 560 442 236 4252
internal_count=11612 7302 2245 5057 4959 2007 1803 1180 2952 1582 997 1146 585 1110 623 425 842 425 379 95 4310 58 164 155 2926 232 560 442 236 4252
is_linear=0
shrinkage=0.1


Tree=7
num_leaves=31
num_cat=0
split_feature=1 18 11 3 1 24 32 0 3 18 5 37 5 26 3 14 21 9 14 3 4 7 44 5 44 38 31 38 30 5
split_gain=206.231 50.4599 23.0272 16.3448 10.7132 16.9501 10.0699 11.7195 9.33072 8.87753 7.72806 11.4458 7.30422 6.85482 6.19899 5.91811 5.86812 5.57678 5.26121 5.09058 19.8992 9.68598 5.33087 4.92988 4.48734 4.43842 5.70972 4.20534 4.03034 4.15753
threshold=1372.7000000000003 1.0000000180025095e-35 336.04000000000002 6.5000000000000009 592.24500000000012 12.095000000000001 0.24500000000000002 1055.2550000000003 14.500000000000002 0.28500000000000009 15.500000000000002 0.6150000000000001 17.500000000000004 64.120000000000019 55.500000000000007 62.050000000000004 27.010000000000002 108.39000000000001 48.305000000000007 30.500000000000004 22.500000000000004 50.385000000000012 0.27000000000000007 24.500000000000004 0.40000000000000008 0.14500000000000005 0.19500000000000003 0.31000000000000005 0.71500000000000008 30.500000000000004
decision_type=2 2 2 2 2 2 2 2 2 2 2 2 2 2 2 2 2 2 2 2 2 2 2 2 2 2 2 2 2 2
left_child=4 3 8 6 -1 16 -2 -8 12 17 11 19 -3 -9 25 -14 -6 -10 -11 20 -5 -22 27 -15 -19 26 -7 -21 -17 -30
right_child=1 2 -4 10 5 14 7 13 9 18 -12 -13 15 23 -16 28 -18 24 -20 22 21 -23 -24 -25 -26 -27 -28 -29 29 -31
leaf_value=-0.018429232916927392 -0.023696416486864505 -0.017240271473875142 0.018660278486556749 -0.01641169208653119 0.016888431483359726 -0.011356292541854638 -0.021544874689289343 0.024707171471940504 0.022816519899801775 -0.0064060655404936592 0.025504950231419563 -0.017899427832441129 -0.027550401447112099 -0.041510098055005079 0.030622094174226129 0.034563350994536217 -0.02962387373050054 -0.020878509456111541 0.030411358331811841 0.012511191783529342 0.025154610549714646 -0.0057825794549492323 0.029808869781902027 0.0066039151615566675 0.0065291402014819068 -0.019810346498089191 0.026399020167688532 0.026646701330891705 -0.011431312245818285 0.018891189508140088
leaf_weight=3573 115 808 441 196 283 242 107 296 55 53 1464 94 57 24 30 47 30 186 145 660 571 123 491 189 88 703 48 309 104 80
leaf_count=3573 115 808 441 196 283 242 107 296 55 53 1464 94 57 24 30 47 30 186 145 660 571 123 491 189 88 703 48 309 104 80
internal_value=3.20814e-11 0.0114047 -0.00160282 0.0171921 -0.0155726 -0.00793291 0.00346762 0.00853883 -0.00710869 0.0038258 0.0197593 0.0163176 -0.0123664 0.0148629 -0.0141633 0.00130744 0.0124304 -0.00624295 0.0205562 0.0176863 0.0117251 0.0196715 0.0213201 0.00118262 -0.0120761 -0.0155164 -0.00510714 0.0170188 0.00842821 0.00175238
internal_weight=11612 6703 2064 4639 4909 1336 731 616 1623 527 3908 2444 1096 509 1023 288 313 329 198 2350 890 694 1460 213 274 993 290 969 231 184
internal_count=11612 6703 2064 4639 4909 1336 731 616 1623 527 3908 2444 1096 509 1023 288 313 329 198 2350 890 694 1460 213 274 993 290 969 231 184
is_linear=0
shrinkage=0.1


Tree=8
num_leaves=31
num_cat=0
split_feature=2 3 5 27 18 44 1 8 18 9 4 30 14 3 3 9 2 11 0 21 0 3 14 10 1 4 9 1 9 16
split_gain=168.066 41.6842 26.1717 15.9139 13.4237 14.2299 9.82082 12.0648 7.80126 7.62242 12.3631 6.2831 6.23935 6.1725 5.77026 5.16442 5.15988 4.55567 4.28905 4.19517 4.09469 4.02207 4.61904 3.97821 7.5264 3.55052 3.45013 7.29632 7.2202 5.04268
threshold=1185.6850000000002 8.5000000000000018 17.500000000000004 0.085000000000000006 1.0000000180025095e-35 0.48000000000000004 1016.5350000000002 17.065000000000001 0.28500000000000009 139.00500000000002 36.500000000000007 0.81500000000000006 33.240000000000002 49.500000000000007 39.500000000000007 396.38000000000005 2712.0250000000005 142.23000000000005 266.07500000000005 29.465000000000003 1577.7150000000004 9.5000000000000018 36.005000000000003 213.89500000000004 7182.3900000000003 29.500000000000004 100.61000000000001 3089.0150000000008 192.78500000000003 11.815000000000003
decision_type=2 2 2 2 2 2 2 2 2 2 2 2 2 2 2 2 2 2 2 2 2 2 2 2 2 2 2 2 2 2
left_child=6 2 9 -4 12 8 -1 -8 19 10 -2 -5 14 17 -3 23 -10 18 -9 25 -21 -20 -23 24 -13 -6 -14 28 29 -28
right_child=1 4 3 11 5 -7 7 13 16 -11 -12 15 26 -15 -16 -17 -18 -19 21 20 -22 22 -24 -25 -26 -27 27 -29 -30 -31
leaf_value=-0.015593347311918807 -0.024309727331487146 -0.018531185073011061 -0.022817529216929752 0.022486920806373614 -0.0097116549290827848 0.022649047871430714 0.015643217119764775 -0.022536657924775955 -0.0014094076701439918 -0.019513619698747233 0.029089821194824967 -0.0053091268152443338 0.026275286217530572 0.030237469542771581 0.015703877475526599 0.022743370114929148 0.03015332768360774 -0.024656605954139921 -0.026364233648335497 -0.022029098902108538 0.023844310925120401 -0.014951921800772351 0.03260230524465442 -0.026235960113505527 0.024089470782945321 0.027650206190783806 0.0032098746231753565 0.020964443347191653 -0.012393291878700257 0.02120277422884996
leaf_weight=4310 82 85 143 403 67 300 235 77 128 685 92 268 600 32 117 144 87 236 27 265 21 30 64 48 129 41 263 2126 125 382
leaf_count=4310 82 85 143 403 67 300 235 77 128 685 92 268 600 32 117 144 87 236 27 265 21 30 64 48 129 41 263 2126 125 382
internal_value=-9.31643e-11 0.010482 -0.0015969 0.00836981 0.01571 0.00482249 -0.013808 -0.00283077 -0.00395906 -0.014766 0.00392452 0.0128656 0.0183862 -0.0121471 0.00129803 0.00628254 0.0113625 -0.0152722 -0.0040867 -0.0123198 -0.0186608 0.00765418 0.0174254 0.000955887 0.00424357 0.00447201 0.0193736 0.0179437 0.00960324 0.0138661
internal_weight=11612 6601 1994 1135 4607 909 5011 701 609 859 174 992 3698 466 202 589 215 434 198 394 286 121 94 445 397 108 3496 2896 770 645
internal_count=11612 6601 1994 1135 4607 909 5011 701 609 859 174 992 3698 466 202 589 215 434 198 394 286 121 94 445 397 108 3496 2896 770 645
is_linear=0
shrinkage=0.1


Tree=9
num_leaves=31
num_cat=0
split_feature=2 3 5 27 18 44 1 8 9 4 40 3 4 9 0 30 9 14 6 11 9 3 17 32 4 10 4 42 1 26
split_gain=136.134 33.8365 25.3388 13.6614 9.21963 10.2156 8.445 15.3052 7.08158 14.5703 6.05213 5.98804 5.6523 6.73935 5.54119 5.52212 5.33297 5.09621 4.89693 4.9402 4.08633 4.24902 6.22514 3.63227 3.61046 5.19031 3.60121 3.47281 6.17091 11.7248
threshold=1185.6850000000002 10.500000000000002 17.500000000000004 0.085000000000000006 1.0000000180025095e-35 0.52000000000000013 656.55000000000007 16.835000000000004 147.57000000000002 37.500000000000007 0.095000000000000015 48.500000000000007 28.500000000000004 133.92500000000004 1577.7150000000004 0.81500000000000006 70.855000000000004 33.240000000000002 5.8550000000000013 142.23000000000005 396.38000000000005 1.5000000000000002 168.96500000000003 0.29500000000000004 13.500000000000002 62.005000000000003 18.500000000000004 0.055000000000000007 21.735000000000003 1.4750000000000003
decision_type=2 2 2 2 2 2 2 2 2 2 2 2 2 2 2 2 2 2 2 2 2 2 2 2 2 2 2 2 2 2
left_child=6 2 8 -4 17 12 27 10 9 -2 16 24 -6 -14 -15 -5 -8 18 -3 -20 21 22 -17 -18 -9 26 -26 28 -1 -30
right_child=1 4 3 15 5 -7 7 11 -10 -11 -12 -13 13 14 -16 20 23 -19 19 -21 -22 -23 -24 -25 25 -27 -28 -29 29 -31
leaf_value=-0.018201976705822628 -0.02105578930281541 0.019004431874914605 -0.019908271863542756 0.020719713533734099 -0.011820814813176792 0.022170191001595303 0.026780657111350154 -0.021163417490368541 -0.017428158415967357 0.026046338653939918 -0.019104071971723591 0.019432698052238535 0.038348837967576654 -0.010795264303275985 0.025092409477859248 0.0015660422149105608 0.027630386846821481 0.01771198490256681 -0.034312630251601889 0.0075463327815977199 0.020807901814283915 0.012959651373326778 -0.035623000405336683 -0.0069201400598226971 -0.0055341138855203413 -0.02037515480661653 0.023345754792292915 -0.019815677429166127 0.038050302118062977 -0.010301856673355644
leaf_weight=1226 136 88 145 486 300 241 191 440 736 127 59 54 58 146 61 214 41 3342 54 59 151 200 57 118 154 183 60 1023 52 1410
leaf_count=1226 136 88 145 486 300 241 191 440 736 127 59 54 58 146 61 214 41 3342 54 59 151 200 57 118 154 183 60 1023 52 1410
internal_value=-8.7903e-11 0.0094338 -0.000515631 0.00895581 0.0145858 0.00493242 -0.0124272 -0.00549113 -0.0123952 0.00168934 0.0105238 -0.0128425 -0.00242032 0.00822174 -0.00021967 0.0127331 0.0155182 0.0167819 0.00131712 -0.0124571 0.00649284 0.00190351 -0.00625601 0.00198912 -0.0149248 -0.00801048 0.00256305 -0.0148569 -0.0129697 -0.00858208
internal_weight=11612 6601 2252 1253 4349 806 5011 1300 999 263 409 891 565 265 207 1108 350 3543 201 113 622 471 271 159 837 397 214 3711 2688 1462
internal_count=11612 6601 2252 1253 4349 806 5011 1300 999 263 409 891 565 265 207 1108 350 3543 201 113 622 471 271 159 837 397 214 3711 2688 1462
is_linear=0
shrinkage=0.1


Tree=10
num_leaves=31
num_cat=0
split_feature=2 3 5 27 5 3 4 9 8 44 1 9 25 8 4 9 22 14 20 2 0 14 25 14 11 32 8 36 2 14
split_gain=110.268 27.7324 17.2712 10.4559 8.80924 13.2066 15.701 16.007 7.55653 7.14202 6.97045 12.7695 9.85704 5.5384 13.5786 5.45514 5.2179 4.55986 5.77591 4.44401 4.2325 4.62819 4.13366 3.7065 3.57474 3.1194 3.07999 3.03938 2.95741 6.79414
threshold=1185.6850000000002 8.5000000000000018 17.500000000000004 0.085000000000000006 15.500000000000002 27.500000000000004 24.500000000000004 157.07500000000002 48.380000000000003 0.31000000000000005 592.24500000000012 82.545000000000016 4.1750000000000007 48.755000000000003 37.500000000000007 92.450000000000003 1.8150000000000002 47.050000000000004 8.7550000000000008 1820.4150000000002 5378.6500000000005 77.885000000000005 7.745000000000001 32.145000000000003 176.56500000000003 0.50500000000000012 38.370000000000012 0.075000000000000025 7357.8050000000012 146.74000000000004
decision_type=2 2 2 2 2 2 2 2 2 2 2 2 2 2 2 2 2 2 2 2 2 2 2 2 2 2 2 2 2 2
left_child=10 2 13 -4 5 6 8 26 -3 15 -1 12 -12 14 -2 -7 25 18 -6 24 21 -5 -9 -21 -17 -13 -8 -18 29 -23
right_child=1 4 3 20 17 9 7 22 -10 -11 11 16 -14 -15 -16 19 27 -19 -20 23 -22 28 -24 -25 -26 -27 -28 -29 -30 -31
leaf_value=-0.01355053898903158 -0.018505766968573294 -0.022691559634443855 -0.018544949049299413 -0.018771634742300564 0.015779551628388858 0.021344209425902847 0.0252828403239947 -0.019840068644092931 0.019006118996470586 0.024527122790163215 0.018702809345957482 0.025347394200990789 -0.008161783404648305 -0.017320771371564531 0.028338196700059094 0.0044027162646805796 0.0091442913768139296 0.019707121272198026 -0.047712516655092657 -0.018880865777411115 -0.0192428313843582 0.01530452517515025 0.0017557912114737691 0.012149075655237077 -0.023905492711224056 -0.0096551343190426735 0.0088359582265453221 -0.017083885539904378 0.02410670988150497 -0.009268448549382231
leaf_weight=3573 155 294 143 47 38 347 349 155 51 550 304 53 248 601 103 108 47 1569 23 41 46 557 207 630 76 49 169 737 201 141
leaf_count=3573 155 294 143 47 38 347 349 155 51 550 304 53 248 601 103 108 47 1569 23 41 46 557 207 630 76 49 169 737 201 141
internal_value=-1.03559e-10 0.00849042 -0.00136183 0.00673467 0.0127547 0.009519 0.00155365 0.0086423 -0.0165276 0.0150884 -0.0111844 -0.00530542 0.00663321 -0.0120598 0.000195505 0.0107695 -0.0127435 0.0186642 -0.00816008 0.00647775 0.0103788 0.0118192 -0.00749105 0.0102531 -0.0072898 0.00853245 0.019917 -0.0155115 0.0134185 0.0103406
internal_weight=11612 6601 1994 1135 4607 2977 1225 880 345 1752 5011 1438 552 859 258 1202 886 1630 61 855 992 946 362 671 184 102 518 784 899 698
internal_count=11612 6601 1994 1135 4607 2977 1225 880 345 1752 5011 1438 552 859 258 1202 886 1630 61 855 992 946 362 671 184 102 518 784 899 698
is_linear=0
shrinkage=0.1


Tree=11
num_leaves=31
num_cat=0
split_feature=2 18 11 22 5 26 15 32 1 34 9 2 14 42 42 17 2 44 14 6 44 4 3 9 9 4 30 1 26 42
split_gain=89.9452 25.6665 11.7771 7.90642 5.91767 10.3096 5.75088 5.57679 4.53626 4.50864 4.45459 6.78505 5.04154 4.82285 4.34534 3.873 4.64328 3.83761 3.6952 3.89404 3.55026 3.38618 4.41765 3.18739 3.14031 4.2666 3.05913 3.00282 12.9877 4.7001
threshold=954.53000000000009 1.0000000180025095e-35 336.04000000000002 55.970000000000006 15.500000000000002 37.785000000000004 1.0000000180025095e-35 0.36500000000000005 7321.6550000000007 0.34500000000000003 122.09000000000002 1601.3950000000002 34.005000000000003 0.23500000000000001 0.60500000000000009 168.96500000000003 5442.4150000000009 0.73000000000000009 57.715000000000011 18.760000000000002 0.10000000000000002 32.500000000000007 24.500000000000004 150.99500000000003 121.17500000000003 24.500000000000004 0.095000000000000015 12.885000000000002 1.0650000000000002 0.025000000000000005
decision_type=2 2 2 2 2 2 2 2 2 2 2 2 2 2 2 2 2 2 2 2 2 2 2 2 2 2 2 2 2 2
left_child=27 3 6 4 5 10 15 -7 17 -9 12 14 13 -2 -12 16 21 24 19 -6 -13 22 -3 -23 25 -8 -14 -1 -29 -30
right_child=1 2 -4 -5 18 7 8 9 -10 -11 11 20 26 -15 -16 -17 -18 -19 -20 -21 -22 23 -24 -25 -26 -27 -28 28 29 -31
leaf_value=-0.015963684852186005 0.0185096287350545 -0.015530976466834545 0.01264981483846768 -0.00940273120093741 0.020151619525516737 -0.0244925171728172 -0.012492383498212566 0.018014797457355135 0.026204808144008412 -0.014070667489999678 -0.014104970884628785 -0.00091989002286585984 -0.012507246341556311 -0.012694994755413223 0.030177893638610842 -0.025573584404976476 0.036183315515518191 0.01538359027988506 0.017239815436425759 -0.025135189329468927 0.013319693650204712 0.031719934915081932 0.0082066817247137738 0.0039189862182540617 -0.014100128167317755 0.026573373282209357 0.018878387576216984 0.047021244093775755 -0.0061274078418862635 -0.013458406814384649
leaf_weight=950 87 168 442 181 34 126 69 94 34 82 195 223 32 115 25 46 43 53 1769 43 815 59 147 137 943 47 1052 40 1544 2017
leaf_count=950 87 168 442 181 34 126 69 94 34 82 195 223 32 115 25 46 43 53 1769 43 815 59 147 137 943 47 1052 40 1544 2017
internal_value=1.14595e-10 0.00706571 -0.00193185 0.0111057 0.0118968 0.0090366 -0.0056232 -0.00843199 -0.00977588 0.00306589 0.0111103 0.00687949 0.015249 0.00074462 -0.00907283 0.00230842 0.00462353 -0.010876 0.0163064 -0.00513842 0.0102605 0.00196782 -0.0044534 0.0122876 -0.0121902 0.00333598 0.0179519 -0.0109626 -0.00964329 -0.0102798
internal_weight=11612 7061 2188 4873 4692 2846 1746 302 1146 176 2544 1258 1286 202 220 600 554 1112 1846 77 1038 511 315 196 1059 116 1084 4551 3601 3561
internal_count=11612 7061 2188 4873 4692 2846 1746 302 1146 176 2544 1258 1286 202 220 600 554 1112 1846 77 1038 511 315 196 1059 116 1084 4551 3601 3561
is_linear=0
shrinkage=0.1


Tree=12
num_leaves=31
num_cat=0
split_feature=2 3 0 8 1 7 0 14 17 27 4 3 44 4 14 3 2 41 24 1 28 43 0 36 44 42 38 19 14 1
split_gain=72.8556 21.0303 14.6388 8.0095 7.66436 11.5075 7.56043 7.32517 6.99814 6.47907 4.36288 13.7849 4.192 4.1241 3.94898 3.80585 3.76732 3.6351 5.66118 2.81028 9.31778 3.92792 4.42372 3.09227 3.36861 2.83555 3.86152 3.53986 5.85936 2.86073
threshold=954.53000000000009 8.5000000000000018 1083.6150000000002 65.680000000000021 3581.8050000000007 43.885000000000012 1707.0550000000001 19.855000000000004 113.01000000000001 0.085000000000000006 24.500000000000004 21.500000000000004 0.27000000000000007 7.5000000000000009 77.885000000000005 45.500000000000007 4708.2650000000003 0.36500000000000005 35.405000000000008 490.54500000000002 0.41500000000000004 1.0000000180025095e-35 229.32500000000002 0.065000000000000016 0.35000000000000003 0.055000000000000007 0.31000000000000005 0.64500000000000013 29.035000000000004 176.50000000000003
decision_type=2 2 2 2 2 2 2 2 2 2 2 2 2 2 2 2 2 2 2 2 2 2 2 2 2 2 2 2 2 2
left_child=19 2 -2 -4 5 7 -5 13 15 -8 11 -9 -13 -3 -11 17 -16 -7 -19 25 21 -21 23 24 -23 26 -1 28 29 -28
right_child=1 4 3 6 -6 8 9 10 -10 14 -12 12 -14 -15 16 -17 -18 18 -20 20 -22 22 -24 -25 -26 -27 27 -29 -30 -31
leaf_value=-0.011063903018655114 -0.013782772579911408 0.017193990831191726 0.018690979722244986 -0.017685577205636287 0.014064915397043446 -0.019335609112794583 -0.01570623904889357 -0.022290245091268261 0.019474514672216378 -0.024159054780328596 0.018973158387864224 0.0087570383563463344 0.023685732041018079 -0.020564228908291887 0.020099124713328923 0.018515071607365898 0.00436940349948903 0.023176085157319906 -0.0099386827720238484 0.021137774042915881 -0.013255665589671964 -0.00083228870542771227 0.037457158442201287 -0.011232771401974692 0.034449019324448375 -0.016692218996017312 -0.0033502803377385413 -0.019442945021775463 0.053190359711647033 0.033039474248886112
leaf_weight=2356 707 39 290 198 2331 260 141 129 106 37 610 769 249 112 223 49 480 64 267 114 673 109 29 201 36 762 159 62 25 25
leaf_count=2356 707 39 290 198 2331 260 141 129 106 37 610 769 249 112 223 49 480 64 267 114 673 109 29 201 36 762 159 62 25 25
internal_value=-7.26323e-11 0.00635914 -0.0020977 0.00393688 0.00988098 0.00620625 -2.85362e-05 0.0103236 -0.0043245 0.00393979 0.0121401 0.00850608 0.0124086 -0.0108121 0.00768315 -0.00826622 0.00935906 -0.0104867 -0.00353583 -0.00986638 -0.00562258 0.00488266 -5.88913e-05 -0.0032033 0.00792721 -0.0113215 -0.0097636 0.00154092 0.0077658 0.00159398
internal_weight=11612 7061 2076 1369 4985 2654 1079 1908 746 881 1757 1147 1018 151 740 640 703 591 331 4551 1162 489 375 346 145 3389 2627 271 209 184
internal_count=11612 7061 2076 1369 4985 2654 1079 1908 746 881 1757 1147 1018 151 740 640 703 591 331 4551 1162 489 375 346 145 3389 2627 271 209 184
is_linear=0
shrinkage=0.1


Tree=13
num_leaves=31
num_cat=0
split_feature=2 18 44 1 22 9 4 18 18 14 42 0 1 3 40 22 17 5 21 11 0 36 3 2 17 3 20 14 14 33
split_gain=59.013 17.6364 8.76702 7.32023 5.71771 5.28681 6.29331 5.50859 4.60999 4.18103 5.78374 4.0854 4.00182 4.36232 3.84575 3.84267 4.04415 3.61184 10.1286 4.78395 6.72731 4.22842 3.37929 3.34058 3.09533 2.94595 2.81873 3.23901 2.78013 2.70627
threshold=954.53000000000009 1.0000000180025095e-35 0.64500000000000013 6805.6400000000003 42.170000000000009 146.39500000000004 28.500000000000004 0.99500000000000011 1.0050000000000001 38.07500000000001 0.15500000000000003 4703.0750000000016 3785.1000000000004 1.0000000180025095e-35 0.34500000000000003 8.9950000000000028 116.16500000000001 7.5000000000000009 27.765000000000004 186.78500000000003 426.28000000000003 0.29500000000000004 27.500000000000004 5657.880000000001 61.015000000000008 5.5000000000000009 8.7550000000000008 26.895000000000003 56.400000000000006 0.54500000000000015
decision_type=2 2 2 2 2 2 2 2 2 2 2 2 2 2 2 2 2 2 2 2 2 2 2 2 2 2 2 2 2 2
left_child=-1 4 3 5 9 6 22 -7 -9 10 -2 -5 -6 -14 -4 -16 -17 18 -11 20 -20 -21 -3 -18 -24 -8 27 -12 29 -19
right_child=1 2 14 11 12 7 25 8 -10 17 26 -13 13 -15 15 16 23 28 19 21 -22 -23 24 -25 -26 -27 -28 -29 -30 -31
leaf_value=-0.0088797389256040013 0.018399052259300937 -0.015687707819605389 0.023376004416973163 0.020031880317255855 -0.028617222607135773 -0.014143866419857532 -0.0014523734412496053 0.024050280074278514 -0.010156250305204506 0.014642140437773177 -0.013269310584291816 -0.018137826113139882 -0.011839643000241588 0.012663297011302069 -0.012859820214010054 -0.022887606045295453 0.023386221921362846 0.0063150859068310449 -0.011355326221539425 0.0097681666692990936 0.017082520835585407 -0.015180488828997994 -0.0083792209625244141 -0.014882592415368115 0.026571151713530222 0.025251672727366288 -0.02925372068204132 0.011652895554222845 0.013886744621311606 -0.033762431663015617
leaf_weight=4551 119 186 156 160 53 912 63 75 83 849 128 34 136 156 93 29 147 63 130 89 231 287 58 27 45 120 51 88 2470 23
leaf_count=4551 119 186 156 160 53 912 63 75 83 849 128 34 136 156 93 29 147 63 130 89 231 287 58 27 45 120 51 88 2470 23
internal_value=-8.90579e-11 0.00572322 -0.00173519 -0.00496515 0.00907209 -0.00726842 0.00154766 -0.0111574 0.00608103 0.0100176 6.35506e-05 0.0133423 -0.00333748 0.00125097 0.0106701 0.00397379 0.0116857 0.0109452 0.00719648 -0.00138068 0.00684174 -0.00927509 -0.00764085 0.017448 0.00689036 0.0160585 -0.00810845 -0.00311582 0.0132714 -0.00440332
internal_weight=11612 7061 2188 1736 4873 1542 472 1070 158 4528 386 194 345 292 452 296 203 4142 1586 737 361 376 289 174 103 183 267 216 2556 86
internal_count=11612 7061 2188 1736 4873 1542 472 1070 158 4528 386 194 345 292 452 296 203 4142 1586 737 361 376 289 174 103 183 267 216 2556 86
is_linear=0
shrinkage=0.1


Tree=14
num_leaves=31
num_cat=0
split_feature=1 18 44 1 0 15 1 9 22 1 4 3 44 4 11 34 0 40 22 17 2 14 6 7 38 5 17 34 38 36
split_gain=48.2466 14.7792 7.44506 6.09308 4.76058 4.18672 4.07085 6.56133 7.38534 6.20872 4.37692 11.8871 4.39729 3.87367 3.63048 3.62003 3.30918 3.14945 3.12679 3.33197 2.70587 2.63897 3.12542 2.592 2.42784 3.41841 2.26439 2.24183 5.10396 2.22372
threshold=1016.5350000000002 1.0000000180025095e-35 0.64500000000000013 6805.6400000000003 4703.0750000000016 1.0000000180025095e-35 7055.6050000000005 192.78500000000003 42.170000000000009 3514.1650000000004 22.500000000000004 28.500000000000004 0.35000000000000003 33.500000000000007 126.71500000000002 0.22500000000000003 4703.0750000000016 0.34500000000000003 8.9950000000000028 116.16500000000001 5657.880000000001 42.755000000000003 9.8050000000000015 81.030000000000015 0.27000000000000007 15.500000000000002 87.00500000000001 0.095000000000000015 0.40000000000000008 0.48500000000000004
decision_type=2 2 2 2 2 2 2 2 2 2 2 2 2 2 2 2 2 2 2 2 2 2 2 2 2 2 2 2 2 2
left_child=29 4 3 5 6 13 7 10 9 15 11 14 -13 27 -2 -9 -5 -4 -19 -20 -21 22 -12 -6 25 -7 -15 28 -3 -1
right_child=1 2 17 16 23 24 -8 8 -10 -11 21 12 -14 26 -16 -17 -18 18 19 20 -22 -23 -24 -25 -26 -27 -28 -29 -30 -31
leaf_value=-0.0086552879646041997 0.0096506353381068215 -0.0080644639882635569 0.02076652319526967 0.018028692295774817 -0.016713118679555401 -0.0067435560291823071 0.016020883910129995 -0.0014679642606385147 -0.026290537182079712 0.0075046279487261253 0.024155190587043764 0.0066587173354604075 0.021324794119097799 0.023689857621987664 -0.022953078164214113 -0.026594476219680575 -0.01632404419429162 -0.011646891678584383 -0.020382127910852435 0.021047599319698049 -0.013394333035857589 0.014282572670587176 -0.020041922945529225 0.022369234971702099 -0.012965190756436831 0.026028258000549517 0.0020117350474551875 -0.018315402194134241 0.028470619147022563 0.011058420996213783
leaf_weight=4252 43 188 162 160 112 196 621 158 92 807 24 1102 251 87 166 90 34 94 30 147 27 1523 48 20 823 38 108 103 48 58
leaf_count=4252 43 188 162 160 112 196 621 158 92 807 24 1102 251 87 166 90 34 94 30 147 27 1523 48 20 823 38 108 103 48 58
internal_value=1.22038e-10 0.00495219 -0.00179996 -0.00472335 0.00794974 -0.00676351 0.00845204 0.00735997 0.000882358 0.00325194 0.00971342 0.00595083 0.00937948 0.000453687 -0.0162451 -0.0105865 0.0120081 0.00954403 0.00344322 0.0103965 0.0157032 0.0133982 -0.00530955 -0.0107915 -0.0104097 -0.00142164 0.0116835 -0.00600595 -0.0006336 -0.00839
internal_weight=11612 7302 2245 1785 5057 1591 4925 4304 1147 1055 3157 1562 1353 534 209 248 194 460 298 204 174 1595 72 132 1057 234 195 339 236 4310
internal_count=11612 7302 2245 1785 5057 1591 4925 4304 1147 1055 3157 1562 1353 534 209 248 194 460 298 204 174 1595 72 132 1057 234 195 339 236 4310
is_linear=0
shrinkage=0.1


Tree=15
num_leaves=31
num_cat=0
split_feature=2 3 5 1 9 40 8 3 8 4 1 2 7 29 26 42 18 4 4 14 11 2 36 18 14 44 13 20 0 8
split_gain=39.3335 12.0023 6.33744 5.5375 10.8959 8.23091 4.99517 4.02027 3.74468 6.19912 3.64077 6.61653 7.2803 4.4714 3.78941 3.5734 4.06033 3.30993 3.15531 3.15135 3.49224 6.38989 5.4177 3.5519 3.07033 2.9586 3.76121 2.9053 2.79054 3.09134
threshold=1621.3600000000004 7.5000000000000009 22.500000000000004 490.54500000000002 82.545000000000016 0.025000000000000005 86.670000000000016 57.500000000000007 47.955000000000005 36.500000000000007 5588.7600000000011 7028.2000000000007 68.25500000000001 0.67500000000000016 123.72500000000001 0.45500000000000007 1.0000000180025095e-35 63.500000000000007 16.500000000000004 38.07500000000001 183.47000000000003 2622.7200000000007 0.28500000000000009 0.64500000000000013 36.005000000000003 0.14500000000000005 7.5550000000000006 4.0250000000000012 611.20500000000015 41.315000000000005
decision_type=2 2 2 2 2 2 2 2 2 2 2 2 2 2 2 2 2 2 2 2 2 2 2 2 2 2 2 2 2 2
left_child=3 2 8 -1 5 -5 -4 15 9 -2 13 14 -13 -8 -12 27 24 -14 -7 25 -21 22 -22 -23 -17 -3 -27 -6 -24 -30
right_child=1 19 6 4 7 18 10 -9 -10 -11 11 12 17 -15 -16 16 -18 -19 -20 20 21 23 28 -25 -26 26 -28 -29 29 -31
leaf_value=-0.0084363955770245212 -0.01965988637027094 -0.016918242502618919 0.014836399750532331 0.015559274375562352 0.019913241267204285 -0.0087285795022506978 -0.017329352818153523 0.019226120784878731 -0.012066479414805849 0.021867412369212379 -0.035456798468765462 -0.016607157880207526 0.022073379677754863 0.014872841390772402 0.009015705871085326 -0.014667441027286727 -0.0086139454259811076 -0.012435679201568878 0.016420650631189346 0.016430665171423622 0.016828263190109282 0.0094412776615435835 -0.016051125178461547 0.027556422629715069 0.016764054315931656 0.014526353709277559 -0.021148682290162799 -0.012186100786965349 0.014154562688603692 -0.0080285449751785823
leaf_weight=3389 59 88 296 482 29 296 54 56 571 92 95 128 135 214 24 39 272 35 60 602 128 2568 182 113 153 122 39 1018 98 175
leaf_count=3389 59 88 296 482 29 296 54 56 571 92 95 128 135 214 24 39 272 35 60 602 128 2568 182 113 153 122 39 1018 98 175
internal_value=-3.91393e-12 0.00580805 -0.00125226 -0.00583211 -0.00216228 0.00704194 0.00398114 -0.00708451 -0.00836301 0.00564151 -0.000709598 -0.00655414 0.00140584 0.00838434 -0.0264876 -0.00805962 -0.000754576 0.0149686 -0.00448995 0.00872997 0.00943228 0.00814153 -0.00134672 0.0102048 0.0103795 -0.00217425 0.00588457 -0.011297 -0.00645968 -6.53781e-05
internal_weight=11612 5818 1703 5794 2405 838 981 1567 722 151 685 417 298 268 119 1511 464 170 356 4115 3866 3264 583 2681 192 249 161 1047 455 273
internal_count=11612 5818 1703 5794 2405 838 981 1567 722 151 685 417 298 268 119 1511 464 170 356 4115 3866 3264 583 2681 192 249 161 1047 455 273
is_linear=0
shrinkage=0.1


Tree=16
num_leaves=31
num_cat=0
split_feature=2 3 0 8 0 1 21 40 14 9 22 4 3 36 42 44 26 44 18 18 9 41 1 31 43 15 22 10 14 42
split_gain=31.8601 9.72188 5.31832 4.7916 4.76686 4.50559 8.72224 5.5856 5.12721 4.80613 4.16985 3.73497 3.61385 3.39197 3.11895 3.08243 2.6191 2.61493 4.43534 4.37981 3.60016 2.67831 2.35778 2.45326 2.38457 2.35711 2.28062 2.25745 2.22937 2.13465
threshold=1621.3600000000004 7.5000000000000009 1098.5500000000004 69.135000000000005 1802.4100000000003 592.24500000000012 27.010000000000002 0.115 35.465000000000011 60.025000000000006 4.3350000000000009 14.500000000000002 1.0000000180025095e-35 0.065000000000000016 0.69500000000000006 0.60000000000000009 7.6850000000000014 0.48000000000000004 1.0000000180025095e-35 0.28500000000000009 105.28500000000001 0.72500000000000009 5440.7750000000005 0.42500000000000004 0.87500000000000011 1.0000000180025095e-35 6.955000000000001 74.375000000000014 60.870000000000012 0.055000000000000007
decision_type=2 2 2 2 2 2 2 2 2 2 2 2 2 2 2 2 2 2 2 2 2 2 2 2 2 2 2 2 2 2
left_child=5 2 -2 -4 15 29 7 9 -9 -7 -10 13 22 16 -8 -5 -11 18 -3 20 -20 -19 23 -6 -24 -16 -14 -23 -15 -1
right_child=1 17 3 4 12 6 14 8 10 11 -12 -13 26 28 25 -17 -18 21 19 -21 -22 27 24 -25 -26 -27 -28 -29 -30 -31
leaf_value=-0.0060165456971115125 -0.010802461817300936 0.0082113794732518661 0.013503097573464568 -0.022601802791986203 -0.015320645347237588 0.019670204794406891 -0.011185624417930173 -0.013555099371105734 0.02626634813743095 0.0011105078692529716 -0.0049131318783530824 0.01915392608435686 -0.0095251569910994125 -0.0018451418848674649 0.035352275463250968 0.0076406967233527794 0.026446962509961692 0.017090422410340537 0.023977242121773382 0.01101120835833851 -0.011775127483846307 -0.028156239539384842 -0.0017571426018379455 0.013398746028542519 -0.020309898443520071 -0.0068328565193547146 0.0129434014603593 0.0071210833849051072 -0.021383557690156475 -0.011622630527014273
leaf_weight=2661 426 2862 286 144 40 250 802 297 73 102 104 121 53 277 26 44 68 525 31 174 308 20 172 116 116 27 306 195 74 912
leaf_count=2661 426 2862 286 144 40 250 802 297 73 102 104 121 53 277 26 44 68 525 31 174 308 20 172 116 116 27 306 195 74 912
internal_value=6.43553e-11 0.00522724 -0.00112703 0.00210064 -0.00119008 -0.0052489 -0.00171195 0.00324595 -0.00552613 0.00790735 0.0079462 0.0033268 0.00216575 -0.000348987 -0.00963298 -0.0155238 0.0112451 0.00785697 0.00667658 -0.00188595 -0.00850574 0.0132405 -0.00386655 0.0060348 -0.00922978 0.0138617 0.00962632 0.00383947 -0.00596435 -0.00744749
internal_weight=11612 5818 1703 1277 991 5794 2221 1366 474 892 177 642 803 521 855 188 170 4115 3375 513 339 740 444 156 288 53 359 215 351 3573
internal_count=11612 5818 1703 1277 991 5794 2221 1366 474 892 177 642 803 521 855 188 170 4115 3375 513 339 740 444 156 288 53 359 215 351 3573
is_linear=0
shrinkage=0.1


Tree=17
num_leaves=31
num_cat=0
split_feature=1 3 0 30 0 44 4 3 3 1 43 7 1 42 4 8 11 8 5 11 9 5 1 8 44 11 15 4 2 20
split_gain=25.8733 8.59455 10.0197 4.74994 6.85419 4.28357 5.23163 8.25736 3.87198 3.62753 2.91255 2.81224 3.48359 3.43936 2.76662 4.9457 2.5492 2.46733 2.52954 5.36234 2.22635 2.87701 2.16557 2.26625 2.16403 2.12197 2.37687 2.10808 1.95565 8.46394
threshold=1016.5350000000002 14.500000000000002 865.43000000000018 0.7350000000000001 1707.0550000000001 0.40000000000000008 22.500000000000004 28.500000000000004 1.0000000180025095e-35 1422.2 0.95500000000000007 16.225000000000005 1422.2 0.95500000000000007 29.500000000000004 47.065000000000005 154.30000000000004 32.565000000000005 12.500000000000002 197.01500000000001 190.22500000000002 18.500000000000004 5294.880000000001 86.670000000000016 0.64500000000000013 194.45000000000002 0.42500000000000004 16.500000000000004 6.4450000000000012 1.1450000000000002
decision_type=2 2 2 2 2 2 2 2 2 2 2 2 2 2 2 2 2 2 2 2 2 2 2 2 2 2 2 2 2 2
left_child=28 2 14 20 -5 6 7 9 22 27 -7 -9 16 -14 -2 25 -13 -8 19 -19 -4 24 -6 -24 -22 26 -16 -3 -1 -30
right_child=1 5 3 4 8 10 17 11 -10 -11 -12 12 13 -15 15 -17 -18 18 -20 -21 21 -23 23 -25 -26 -27 -28 -29 29 -31
leaf_value=-0.010884752701865046 -0.016479950880544571 -0.012154025558316918 0.014751718820809712 -0.012522759328386344 0.0061591074846330147 0.013189196529355449 0.015417320046547204 0.017726815850225116 0.0094283070549988635 -0.025081661617076853 -0.01434221725910902 -0.0024823457084514281 0.0056301190142633677 -0.028139681200827323 0.020757537567560828 -0.013248760646039789 -0.025960595509217633 0.012684377095326275 0.0092330571608807126 -0.013541909150150886 -0.0099208997857981734 0.013337174657877392 0.018052964011828106 -0.010918613012742114 0.025168428048491478 -0.014526385594816768 -0.0080090271356778268 0.018755791087945305 0.024921224487351849 -0.0059708553993906592
leaf_weight=724 363 57 393 346 168 976 419 131 553 158 40 182 1112 31 109 275 62 147 886 166 145 154 30 270 20 34 39 36 91 3495
leaf_count=724 363 57 393 346 168 976 419 131 553 158 40 182 1112 31 109 275 62 147 886 166 145 154 30 270 20 34 39 36 91 3495
internal_value=7.25039e-12 0.00362652 -0.000601534 0.00309065 -0.000358981 0.00641034 0.00470202 0.000943334 0.00376312 -0.0158585 0.0121053 0.0037215 0.00239872 0.00471423 -0.00996257 -0.00478575 -0.00844813 0.00881149 0.00650303 -0.00122477 0.00971375 0.00350709 -0.002931 -0.00802146 -0.00566765 0.00800177 0.0131772 -0.000188935 -0.00614405 -0.00518692
internal_weight=11612 7302 2899 2079 1367 4403 3387 1769 1021 251 1016 1518 1387 1143 820 457 244 1618 1199 313 712 319 468 300 165 182 148 93 4310 3586
internal_count=11612 7302 2899 2079 1367 4403 3387 1769 1021 251 1016 1518 1387 1143 820 457 244 1618 1199 313 712 319 468 300 165 182 148 93 4310 3586
is_linear=0
shrinkage=0.1


Tree=18
num_leaves=31
num_cat=0
split_feature=2 3 0 14 20 9 2 42 34 20 14 11 0 8 26 4 2 15 18 18 44 11 42 22 14 33 44 36 21 4
split_gain=20.9896 6.56062 3.62547 3.33995 10.5725 4.34562 5.96764 3.9211 3.71668 5.50987 2.91332 3.36518 4.28466 3.31272 2.82097 3.1672 2.70786 2.36664 2.36629 3.1418 2.87108 2.96457 2.16307 2.10696 2.03296 2.52812 2.59076 1.72176 3.31317 1.69669
threshold=1621.3600000000004 7.5000000000000009 865.43000000000018 10.535000000000002 1.6850000000000003 121.17500000000003 794.76500000000021 1.0000000180025095e-35 1.0000000180025095e-35 5.285000000000001 60.005000000000003 211.57000000000002 1739.3650000000002 88.155000000000015 19.375000000000004 22.500000000000004 4910.4550000000008 0.30500000000000005 0.64500000000000013 1.0000000180025095e-35 0.52000000000000013 179.29500000000004 0.17500000000000002 21.685000000000006 40.995000000000012 0.48500000000000004 0.19000000000000003 0.37500000000000006 18.485000000000003 17.500000000000004
decision_type=2 2 2 2 2 2 2 2 2 2 2 2 2 2 2 2 2 2 2 2 2 2 2 2 2 2 2 2 2 2
left_child=3 2 -2 -1 -5 6 7 8 9 -6 -4 -12 23 -14 29 22 -15 -17 19 24 21 -21 -16 -13 25 26 -3 -9 -29 -8
right_child=1 18 10 4 5 -7 14 27 -10 -11 11 12 13 16 15 17 -18 -19 -20 20 -22 -23 -24 -25 -26 -27 -28 28 -30 -31
leaf_value=-0.0077002250761170543 -0.012683059811982526 -0.013904508288417545 -0.014513943778971831 0.040166978616463511 0.0010827142011705054 -0.0093124760412418989 0.0064270205141322041 -0.0072078123022268799 -0.011484903565123062 0.028718265801668169 0.017364786147275043 -0.0010572102061800054 0.013759264212915269 0.0091396332161339452 0.018542900718748572 0.016656023095692359 -0.004801240470017217 -0.0205118188900607 0.017781375701938357 0.01735168068476443 0.010311292111873628 -0.0078357099694541747 -0.016695736287920562 -0.016232724973509981 0.0077425097522064116 -0.03641703434288502 0.010793567186704388 0.043107864335179331 -0.010182452654199941 0.018821982461578995
leaf_weight=1898 229 70 114 57 259 897 444 1554 121 100 131 185 261 219 20 93 383 21 175 53 173 395 135 181 3121 20 108 20 28 147
leaf_count=1898 229 70 114 57 259 897 444 1554 121 100 131 185 261 219 20 93 383 21 175 53 173 395 135 181 3121 20 108 20 28 147
internal_value=1.43404e-11 0.00424278 -0.000977133 -0.00426035 -0.00258456 -0.00321932 -0.00136155 -0.00425616 0.00367203 0.00878064 0.000841494 0.00212864 0.00050461 0.00434979 0.00564607 -0.00284314 0.000270273 0.00980932 0.00640305 0.00589767 -0.000630616 -0.00485595 -0.0121488 -0.00856204 0.00711914 -0.00270682 0.00108084 -0.00663164 0.0120218 0.00951003
internal_weight=11612 5818 1703 5794 3896 3839 2942 2082 480 359 1474 1360 1229 863 860 269 602 114 4115 3940 621 448 155 366 3319 198 178 1602 48 591
internal_count=11612 5818 1703 5794 3896 3839 2942 2082 480 359 1474 1360 1229 863 860 269 602 114 4115 3940 621 448 155 366 3319 198 178 1602 48 591
is_linear=0
shrinkage=0.1


Tree=19
num_leaves=31
num_cat=0
split_feature=2 3 0 8 10 14 20 24 39 2 9 4 26 0 37 8 38 9 14 44 37 5 0 22 40 7 2 26 4 0
split_gain=17.0015 5.3141 3.03142 3.08606 3.56047 2.733 9.17961 3.57882 2.33622 2.30537 2.30236 5.72336 2.19653 2.0999 4.60677 3.80492 2.77774 3.29134 2.74818 2.67196 2.42047 2.88382 2.04494 2.70226 2.53678 2.48675 1.88959 3.50931 1.76622 1.71855
threshold=1621.3600000000004 7.5000000000000009 1098.5500000000004 70.000000000000014 147.64500000000001 9.4950000000000028 1.6850000000000003 6.8850000000000007 0.065000000000000016 6589.880000000001 121.17500000000003 17.500000000000004 20.245000000000001 1577.7150000000004 0.64500000000000013 66.52500000000002 0.40000000000000008 164.90500000000003 26.895000000000003 0.19000000000000003 0.055000000000000007 8.5000000000000018 4703.0750000000016 7.8150000000000004 1.0000000180025095e-35 87.50500000000001 662.03000000000009 16.055000000000003 24.500000000000004 947.50500000000011
decision_type=2 2 2 2 2 2 2 2 2 2 2 2 2 2 2 2 2 2 2 2 2 2 2 2 2 2 2 2 2 2
left_child=5 2 -2 -4 9 -1 -7 8 -8 -5 11 26 -13 14 16 29 17 18 19 -3 -19 -22 23 -6 -25 -24 -9 -28 -14 -16
right_child=1 13 3 4 22 6 7 10 -10 -11 -12 12 28 -15 15 -17 -18 20 -20 -21 21 -23 25 24 -26 -27 27 -29 -30 -31
leaf_value=-0.0071130295282511233 -0.008184192618223984 -0.023242770392319253 0.010467659844548111 -0.014564992375671866 -0.016783271410635538 0.034879710330412941 -0.0035311418728462395 -0.0062625394496652817 0.0091831836921686619 0.011688036013108034 -0.0086670177804977714 0.020064433352715932 -0.010629122203490774 0.0099843131898857615 -0.022933203365121571 -0.034679233680168786 0.010291190526192696 0.016252081996914167 0.0078726657726326775 0.010352929718792439 -0.013278073979155073 0.00094599724843584261 -0.011815087009092859 -0.01325872765452254 0.010306627288052482 0.024265970933166417 0.0061079548499018872 -0.0092563116327855598 0.012022926752703099 0.0013064995073200612
leaf_weight=1767 426 58 298 235 49 65 241 1575 361 39 882 134 61 916 35 45 904 67 1225 40 212 435 145 51 438 22 388 241 79 178
leaf_count=1767 426 58 298 235 49 65 241 1575 361 39 882 134 61 916 35 45 904 67 1225 40 212 435 145 51 438 22 388 241 79 178
internal_value=-3.76956e-12 0.0038185 -0.00087942 0.00155741 -0.0011548 -0.00383432 -0.00239566 -0.00300719 0.00409323 -0.0108282 -0.00427935 -0.00271764 0.0109127 0.00576274 0.00455394 -0.00825841 0.00567791 0.00363058 0.00658356 -0.00953024 -0.00184111 -0.00371475 0.00260481 0.00560544 0.00784889 -0.00706189 -0.00441215 0.000221169 0.00215311 -0.00267655
internal_weight=11612 5818 1703 1277 979 5794 4027 3962 602 274 3360 2478 274 4115 3199 258 2941 2037 1323 98 714 647 705 538 489 167 2204 629 140 213
internal_count=11612 5818 1703 1277 979 5794 4027 3962 602 274 3360 2478 274 4115 3199 258 2941 2037 1323 98 714 647 705 538 489 167 2204 629 140 213
is_linear=0
shrinkage=0.1


Tree=20
num_leaves=31
num_cat=0
split_feature=2 3 4 8 0 25 14 3 44 9 0 8 4 38 8 3 0 10 43 2 18 1 26 23 38 19 8 14 1 8
split_gain=13.7999 5.06055 6.5656 4.20167 5.80939 3.60942 3.11678 3.04351 2.89309 2.67776 5.42669 4.29991 2.6964 2.31207 2.26722 2.24411 1.8275 1.7367 1.66835 1.73021 1.65754 2.27075 6.76159 1.90531 4.05374 4.15047 2.50764 1.8027 1.73367 1.62505
threshold=954.53000000000009 14.500000000000002 29.500000000000004 46.070000000000007 1577.7150000000004 7.2150000000000007 11.990000000000002 1.5000000000000002 0.31000000000000005 91.50500000000001 529.29500000000007 21.815000000000001 10.500000000000002 0.40000000000000008 77.710000000000022 35.500000000000007 370.64500000000004 147.64500000000001 0.95500000000000007 6873.3200000000006 0.065000000000000016 20.215000000000003 1.4750000000000003 4.7750000000000012 0.10000000000000002 0.64500000000000013 8.8100000000000023 35.465000000000011 44.010000000000012 32.980000000000011
decision_type=2 2 2 2 2 2 2 2 2 2 2 2 2 2 2 2 2 2 2 2 2 2 2 2 2 2 2 2 2 2
left_child=20 2 -2 -4 5 -5 -3 14 9 -8 11 12 -11 -13 -6 16 -10 -16 -18 -20 21 -1 28 24 27 26 -26 -24 -23 -12
right_child=1 6 3 4 7 -7 8 -9 15 10 29 13 -14 -15 17 -17 18 -19 19 -21 -22 22 23 -25 25 -27 -28 -29 -30 -31
leaf_value=-0.0072030542073660683 -0.012804014552632968 -0.013970011069494135 0.011683789902088937 -0.019787910666422076 0.013396703630037929 -0.003435997324934693 0.0092302859014272692 0.0085979959468706173 -0.010243168201238391 -0.0039828190160915251 0.011124273620915136 -0.017423887227705305 0.017216229190429054 0.00078268847478333344 -0.020432619344104421 0.014670870081374521 0.008492429759189804 -0.0016602117629163752 -0.027409020728535124 0.011397245153784753 -0.0090639075786349884 0.0050864175707101824 -0.0057072641393104634 -0.0047620502660027939 0.0069699102470391922 -0.010095516250414008 0.026284127937168139 0.014093117281794548 0.040352831375987636 0.0032631760864735918
leaf_weight=1178 375 85 342 168 92 687 625 678 63 160 343 279 96 93 55 475 797 474 27 20 628 20 572 1697 158 85 117 50 46 1127
leaf_count=1178 375 85 342 168 92 687 625 678 63 160 343 279 96 93 55 475 797 474 27 20 628 20 572 1697 158 85 117 50 46 1127
internal_value=2.54586e-11 0.00276761 -0.000466508 0.00138708 -0.00024777 -0.006649 0.00498364 0.00396551 0.0053761 0.00348483 0.00177324 -0.00600791 0.00396682 -0.0128722 -0.00109217 0.00910254 0.00618638 -0.00361197 0.00741276 -0.0108957 -0.00429402 -0.00353045 -0.00195438 -0.00273338 0.000772373 0.00921769 0.0151872 -0.00411559 0.029666 0.00509743
internal_weight=11612 7061 2871 2496 2154 855 4190 1299 4105 2723 2098 628 256 372 621 1382 907 529 844 47 4551 3923 2745 2679 982 360 275 622 66 1470
internal_count=11612 7061 2871 2496 2154 855 4190 1299 4105 2723 2098 628 256 372 621 1382 907 529 844 47 4551 3923 2745 2679 982 360 275 622 66 1470
is_linear=0
shrinkage=0.1


Tree=21
num_leaves=31
num_cat=0
split_feature=2 3 4 26 0 11 44 0 3 14 44 39 30 4 3 15 23 13 14 8 8 14 10 28 4 25 1 21 15 42
split_gain=11.1779 4.09904 5.38034 3.45517 3.86719 3.15346 3.33462 2.84004 2.57979 2.52459 2.3434 2.4344 3.37338 2.32292 6.04447 2.20647 2.17135 1.96207 4.83835 1.90393 1.83828 1.58318 1.49082 1.34408 3.2872 1.56909 1.51516 3.42364 2.02398 2.6476
threshold=954.53000000000009 14.500000000000002 28.500000000000004 28.605000000000004 1577.7150000000004 234.72000000000003 0.64500000000000013 1055.2550000000003 1.5000000000000002 11.990000000000002 0.31000000000000005 0.115 0.085000000000000006 22.500000000000004 30.500000000000004 1.0000000180025095e-35 41.535000000000004 9.1850000000000005 43.155000000000008 33.330000000000005 77.710000000000022 55.270000000000003 150.20500000000001 0.51500000000000012 13.500000000000002 8.5050000000000008 490.54500000000002 17.340000000000003 1.0000000180025095e-35 0.025000000000000005
decision_type=2 2 2 2 2 2 2 2 2 2 2 2 2 2 2 2 2 2 2 2 2 2 2 2 2 2 2 2 2 2
left_child=23 2 -2 -4 5 7 -7 15 20 -3 11 -11 21 14 -14 -5 -9 -12 -19 -15 -6 -13 -22 24 26 -26 -1 28 29 -28
right_child=1 9 3 4 8 6 -8 16 -10 10 17 12 13 19 -16 -17 -18 18 -20 -21 22 -23 -24 -25 25 -27 27 -29 -30 -31
leaf_value=-0.0045700083180053334 -0.012250819678107899 -0.012573010167654823 0.012878877837129555 0.0091993811639382497 0.012142347395420076 -0.015078941151922093 0.013589068162052529 0.015888660265040315 0.0078443906413563549 0.01399229031909878 0.015584663023289883 -0.0066025620698928842 -0.015194093246412063 0.011899257716503501 0.0030016024084620202 -0.0080619335879056706 -0.014598658374909843 -0.034030733951206864 0.0073661074680642473 0.0033285078030156623 -0.017257370910982586 -0.046391805149614815 -0.0012977323294707755 -0.0090083200443756128 0.03041820481774353 -0.00014291746275765555 0.014320778049662844 -0.008707230049095559 0.016645173861728452 -0.0045248257857849949
leaf_weight=3304 339 85 229 94 90 344 46 141 681 192 285 20 224 361 987 349 28 29 1068 919 67 20 463 457 42 28 111 259 123 227
leaf_count=3304 339 85 229 94 90 344 46 141 681 192 285 20 224 361 987 349 28 29 1068 919 67 20 463 457 42 28 111 259 123 227
internal_value=-1.37028e-11 0.00249085 -0.000419857 0.00116415 -7.14537e-07 -0.00467005 -0.0116976 -0.000191723 0.0035955 0.00448528 0.00483849 0.00313635 0.00231282 0.00277545 -0.000364075 -0.00439926 0.0108375 0.00819229 0.00627175 0.00574573 -0.00107142 -0.0264972 -0.00331527 -0.00386462 -0.00329045 0.0181938 -0.00366418 0.000492576 0.00566123 0.00166412
internal_weight=11612 7061 2871 2532 2303 1002 390 612 1301 4190 4105 2723 2531 2491 1211 443 169 1382 1097 1280 620 40 530 4551 4094 70 4024 720 461 338
internal_count=11612 7061 2871 2532 2303 1002 390 612 1301 4190 4105 2723 2531 2491 1211 443 169 1382 1097 1280 620 40 530 4551 4094 70 4024 720 461 338
is_linear=0
shrinkage=0.1


Tree=22
num_leaves=31
num_cat=0
split_feature=2 3 4 8 0 25 8 14 1 7 2 44 9 0 21 11 41 11 26 44 43 14 22 1 13 11 0 18 1 26
split_gain=9.05413 3.32022 4.64862 4.53765 3.88255 2.60658 2.5231 2.04492 2.03083 1.93633 3.39467 1.89815 2.06767 4.00497 3.42202 2.38453 2.22238 1.74215 1.69255 1.53087 1.96865 1.42461 3.39754 1.4231 1.38249 1.34127 2.40481 1.24753 1.73475 5.44837
threshold=954.53000000000009 14.500000000000002 36.500000000000007 49.300000000000004 1707.0550000000001 7.2150000000000007 88.155000000000015 11.990000000000002 7659.0950000000003 68.825000000000017 7685.8750000000009 0.31000000000000005 91.50500000000001 529.29500000000007 27.515000000000004 146.22500000000002 0.49500000000000005 406.37000000000006 19.825000000000003 0.77000000000000013 0.52500000000000013 41.535000000000004 2.6750000000000003 3125.9550000000004 4.455000000000001 197.01500000000001 1146.8900000000001 0.065000000000000016 20.215000000000003 1.6850000000000003
decision_type=2 2 2 2 2 2 2 2 2 2 2 2 2 2 2 2 2 2 2 2 2 2 2 2 2 2 2 2 2 2
left_child=27 2 8 -4 5 23 -6 -3 -2 17 -11 12 24 14 16 -16 -14 -8 -13 20 -7 22 -20 -5 -9 -15 -27 28 -1 -30
right_child=1 7 3 4 6 19 9 11 -10 10 -12 18 13 25 15 -17 -18 -19 21 -21 -22 -23 -24 -25 -26 26 -28 -29 29 -31
leaf_value=-0.0060257481812722412 -0.0086014261919524042 -0.011315708984346952 0.013561435797893052 -0.0054016450027405639 0.0099349698353982732 0.0018051811053442794 -0.0041609770276894173 -0.0082537277164507882 0.01937448834931409 -0.0022672712062604917 0.014062303212032749 0.013748416397720576 0.0032288114994582606 0.010690790162636684 0.015248392407710738 -0.016547902311220414 -0.031106933355331424 -0.02953949805461999 0.017262127506546678 0.024342627488076689 -0.010037153354437833 0.0064760756923765098 -0.025361099557744134 -0.026777500798925758 0.0092431656482707091 -0.0018874652657954339 0.0070375905867335921 -0.0076162598902585026 0.023637076192313717 -0.0022297161903928118
leaf_weight=1178 666 85 289 51 413 296 150 49 27 390 189 320 328 260 26 254 20 33 32 20 267 985 45 80 576 578 632 628 84 2661
leaf_count=1178 666 85 289 51 413 296 150 49 27 390 189 320 328 260 26 254 20 33 32 20 267 985 45 80 576 578 632 628 84 2661
internal_value=-1.1818e-11 0.00224177 -0.000377872 0.00189191 0.000106572 -0.00570927 0.00364062 0.00403675 -0.00751146 0.00022912 0.00306311 0.00435464 0.00282271 0.00131869 -0.00536592 -0.0135954 0.00125549 -0.00873743 0.00737306 -0.00284517 -0.00381099 0.00545205 -0.00764755 -0.0184556 0.00787141 0.00417443 0.00277422 -0.00347816 -0.00281573 -0.00143816
internal_weight=11612 7061 2871 2178 1889 714 1175 4190 693 762 579 4105 2723 2098 628 280 348 183 1382 583 563 1062 77 131 625 1470 1210 4551 3923 2745
internal_count=11612 7061 2871 2178 1889 714 1175 4190 693 762 579 4105 2723 2098 628 280 348 183 1382 583 563 1062 77 131 625 1470 1210 4551 3923 2745
is_linear=0
shrinkage=0.1


Tree=23
num_leaves=31
num_cat=0
split_feature=1 3 0 30 44 4 3 1 4 25 14 9 1 11 42 1 11 0 44 21 4 9 2 22 35 0 22 1 3 29
split_gain=7.40722 2.75779 4.16281 2.8079 2.3386 2.53105 5.00889 2.32637 3.1306 2.18195 2.1454 2.08343 2.12229 3.97709 1.99098 1.89519 1.87513 3.57829 2.91507 1.97021 1.72312 1.71437 4.15719 2.09269 1.85315 1.68757 1.60917 1.60369 1.5431 1.97958
threshold=878.6350000000001 14.500000000000002 865.43000000000018 0.62500000000000011 0.48000000000000004 22.500000000000004 31.500000000000004 1402.0350000000001 17.500000000000004 38.600000000000009 60.005000000000003 54.520000000000003 1903.7000000000003 175.29500000000004 0.95500000000000007 2541.8650000000002 203.53000000000003 1707.0550000000001 0.77000000000000013 101.33500000000002 31.500000000000004 182.60500000000005 3078.0150000000003 12.385000000000003 0.48500000000000004 193.49500000000003 0.93500000000000016 1316.4650000000004 27.500000000000004 0.27500000000000008
decision_type=2 2 2 2 2 2 2 2 2 2 2 2 2 2 2 2 2 2 2 2 2 2 2 2 2 2 2 2 2 2
left_child=-1 2 15 -4 5 6 7 8 -3 25 -5 -8 13 -13 -14 -2 -12 18 -18 -19 -11 26 23 24 -23 -6 -7 -28 -9 -30
right_child=1 4 3 10 9 21 11 28 -10 20 16 12 14 -15 -16 -17 17 19 -20 -21 -22 22 -24 -25 -26 -27 27 -29 29 -31
leaf_value=-0.0034316209486375255 -0.0040431873810002072 -0.0073365681041632942 0.012286459540562898 -0.011474033970443998 0.026850607389943645 -0.012450576338328814 0.014633862596394412 -0.02120783400562842 0.02373648789234278 -0.03200621489774097 0.015153630588126058 -0.00032157247130145143 0.0051401761061965652 -0.027351892565286931 -0.022403781226387733 -0.015881237760186195 -0.0079885817398098885 0.0064925255150812579 0.02578104368790432 -0.003047936380667202 0.0041240669109604581 -0.015356773337615388 0.004761979345864845 -0.033172338282646138 0.018896105885505679 0.008811364140199578 0.034050958324223758 0.0078932380061838541 -0.032984908067044759 0.0014253983228671842
leaf_weight=4080 711 155 232 136 57 38 134 164 41 22 96 446 936 62 27 167 480 813 27 295 33 56 636 43 22 575 24 1001 21 82
leaf_count=4080 711 155 232 136 57 38 134 164 41 22 96 446 936 62 27 167 480 813 27 295 33 56 636 43 22 575 24 1001 21 82
internal_value=-2.75805e-11 0.00185887 -0.000521232 0.00191707 0.00339722 0.00244684 5.32613e-05 -0.00910984 -0.000836592 0.0087758 0.000614581 0.00269657 0.00160915 -0.00362055 0.00436792 -0.00629484 0.00157545 0.000768329 -0.0061902 0.00395242 -0.010328 0.00516658 0.00152965 -0.0154601 -0.0056957 0.0104383 0.00775657 0.00850571 -0.0151831 -0.0055903
internal_weight=11612 7532 2957 2079 4575 3888 2068 463 196 687 1847 1605 1471 508 963 878 1711 1615 507 1108 55 1820 757 121 78 632 1063 1025 267 103
internal_count=11612 7532 2957 2079 4575 3888 2068 463 196 687 1847 1605 1471 508 963 878 1711 1615 507 1108 55 1820 757 121 78 632 1063 1025 267 103
is_linear=0
shrinkage=0.1


Tree=24
num_leaves=31
num_cat=0
split_feature=2 3 4 19 42 4 3 44 14 11 5 42 1 1 8 42 1 36 38 17 9 25 24 25 15 2 30 27 11 42
split_gain=6.04515 2.56163 2.51256 2.09876 2.15101 3.35221 5.26363 2.79658 2.92792 2.43963 3.80695 2.36022 1.91365 2.40553 1.89017 1.65436 4.66514 4.61252 5.40745 3.27816 1.59966 1.57407 1.57389 1.50798 1.7358 2.16032 1.35653 1.33824 1.31559 1.22772
threshold=662.03000000000009 4.5000000000000009 42.500000000000007 0.97500000000000009 0.075000000000000025 28.500000000000004 23.500000000000004 0.35000000000000003 25.855000000000004 195.49500000000003 13.500000000000002 0.59500000000000008 6578.9850000000006 1402.0350000000001 56.915000000000006 0.03500000000000001 152.25500000000002 0.025000000000000005 0.31000000000000005 9.4450000000000021 67.355000000000004 2.2050000000000005 175.15000000000003 29.205000000000002 1.0000000180025095e-35 6377.6450000000013 0.95500000000000007 0.84500000000000008 74.200000000000003 0.85500000000000009
decision_type=2 2 2 2 2 2 2 2 2 2 2 2 2 2 2 2 2 2 2 2 2 2 2 2 2 2 2 2 2 2
left_child=15 2 -2 4 27 6 12 8 -8 -7 11 -11 13 -6 -4 16 20 18 19 -18 -1 -21 23 24 -16 -26 -25 -3 -19 -9
right_child=1 3 14 -5 5 9 7 29 -10 10 -12 -13 -14 -15 22 -17 17 28 -20 21 -22 -23 -24 26 25 -27 -28 -29 -30 -31
leaf_value=-0.0036119923146117894 -0.0092619213702681974 0.010762723402964379 0.011034552560520028 -0.021159590901555243 -0.0012230527534016541 0.01147536686101453 -0.01304378474982369 0.0094996231694537796 0.0015080348110087672 -0.015086817425675692 0.0058101083933744602 0.00066519642893511513 0.0145890154728764 -0.013122442248439054 0.0081803661480080343 -0.0059224429976019229 0.036276103742420678 -0.01202569062943044 0.053688800873027909 -0.0044685481587251608 0.020875748743613563 0.017987418189948919 0.010783126054689139 -0.010486989553445736 -0.0072017999423964743 0.0080534353177613167 0.014823168580946717 -0.0061830358723035227 0.0089980559592897254 -0.0047147416016634774
leaf_weight=2227 362 449 143 37 280 470 151 571 1640 150 1457 260 38 432 192 1398 40 92 36 86 27 49 99 267 345 127 23 52 44 68
leaf_count=2227 362 449 143 37 280 470 151 571 1640 150 1457 260 38 432 192 1398 40 92 36 86 27 49 99 267 345 127 23 52 44 68
internal_value=1.35825e-11 0.00165367 -0.00196254 0.00258415 0.00273013 0.00216041 4.72581e-05 0.00230751 0.000281164 0.00503581 0.00341471 -0.00509774 -0.00727596 -0.00844291 0.0002468 -0.00314813 -0.00165697 0.00913683 0.018393 0.0111322 -0.00331866 0.00368214 -0.0012182 -0.00246362 0.000163849 -0.00309711 -0.00847963 0.00900388 -0.00522389 0.00798698
internal_weight=11612 7613 1558 6055 6018 5517 3180 2430 1791 2337 1867 410 750 712 1196 3999 2601 347 211 175 2254 135 1053 954 664 472 290 501 136 639
internal_count=11612 7613 1558 6055 6018 5517 3180 2430 1791 2337 1867 410 750 712 1196 3999 2601 347 211 175 2254 135 1053 954 664 472 290 501 136 639
is_linear=0
shrinkage=0.1


Tree=25
num_leaves=31
num_cat=0
split_feature=14 21 30 36 4 9 5 14 38 3 1 21 22 14 44 41 30 42 1 36 27 14 17 37 15 27 1 17 20 20
split_gain=4.98193 3.8382 4.03698 2.71969 2.90265 3.32179 3.57839 3.55391 2.31614 2.06261 4.30279 2.18546 1.8655 1.85516 1.66197 2.05113 1.75705 1.58499 3.73485 3.28258 2.3103 2.02836 1.54746 1.40169 1.36383 1.29356 1.69399 1.08335 1.04413 1.00053
threshold=33.240000000000002 10.415000000000001 0.095000000000000015 0.075000000000000025 4.5000000000000009 121.17500000000003 13.500000000000002 54.865000000000002 0.44000000000000006 51.500000000000007 324.40500000000003 20.070000000000004 3.3350000000000004 47.955000000000005 0.14500000000000005 0.03500000000000001 0.055000000000000007 1.0000000180025095e-35 84.070000000000007 0.015000000000000001 0.74500000000000011 15.030000000000003 9.4450000000000021 0.13500000000000004 0.045000000000000005 0.63500000000000012 1290.8950000000002 3.0350000000000006 3.2350000000000008 4.3150000000000004
decision_type=2 2 2 2 2 2 2 2 2 2 2 2 2 2 2 2 2 2 2 2 2 2 2 2 2 2 2 2 2 2
left_child=9 25 13 23 -5 12 8 -8 -7 29 11 17 24 -3 15 16 22 18 21 20 -20 -11 -12 -4 -6 26 -2 -14 -24 -1
right_child=1 2 3 4 5 6 7 -9 -10 10 14 -13 27 -15 -16 -17 -18 -19 19 -21 -22 -23 28 -25 -26 -27 -28 -29 -30 -31
leaf_value=-0.0024934307807844688 0.041463846783153714 -0.0064940134755202706 0.012015907420561864 -0.006393662120842334 0.0088692452507294559 -0.0050725475699946142 -0.018312919643925285 0.0034676025096188399 0.0011762530338305871 -0.0036178188017579947 0.026500268348238688 0.024479996490067449 -0.015584389812179975 -0.039053079336881638 0.018125386789107502 -0.013767052933573724 0.033374395479376505 -0.0073710500821471212 0.035818722046781007 -0.012142614599985955 0.0079270720962555177 0.01436689528135153 0.0061361172769561802 0.042289503365755085 0.023985782526678556 0.0051538894364199089 0.014596158332212575 0.0043188490485613828 -0.020177767157554628 -0.009188771036931595
leaf_weight=343 32 35 65 477 278 1365 77 2767 1049 1780 22 29 28 35 134 50 26 660 57 39 62 65 38 20 76 77 88 1174 25 639
leaf_count=343 32 35 65 477 278 1365 77 2767 1049 1780 22 29 28 35 134 50 26 660 57 39 62 65 38 20 76 77 88 1174 25 639
internal_value=-2.05643e-11 0.00149264 0.00112813 0.00135496 0.00114763 0.00167554 0.000474443 0.0028779 -0.00235714 -0.00287433 -0.00156724 -0.00282365 0.00573428 -0.0227735 0.00989803 0.00305041 0.0106258 -0.00312098 -0.00172056 0.0130353 0.0212869 -0.00298421 0.00366746 0.0191391 0.0121146 0.0152698 0.0217609 0.00385521 -0.0043059 -0.00685017
internal_weight=11612 7643 7446 7376 7291 6814 5258 2844 2414 3969 2987 2692 1556 70 295 161 111 2663 2003 158 119 1845 85 85 354 197 120 1202 63 982
internal_count=11612 7643 7446 7376 7291 6814 5258 2844 2414 3969 2987 2692 1556 70 295 161 111 2663 2003 158 119 1845 85 85 354 197 120 1202 63 982
is_linear=0
shrinkage=0.1


Tree=26
num_leaves=31
num_cat=0
split_feature=2 9 1 22 4 44 15 15 1 11 41 17 12 1 19 11 4 26 40 1 9 44 38 36 14 16 32 44 13 24
split_gain=4.04809 2.21549 2.60977 3.52199 2.88037 2.36024 2.46779 3.4596 2.51764 1.95982 1.93852 2.49636 1.6457 1.56593 1.51999 1.32207 2.64068 2.77601 1.76558 2.42369 3.01273 2.49087 1.49506 2.04702 3.38739 1.61656 2.55025 1.4211 1.84581 1.27451
threshold=1621.3600000000004 164.90500000000003 7182.3900000000003 42.170000000000009 61.500000000000007 0.77000000000000013 1.0000000180025095e-35 0.49500000000000005 6206.2250000000013 421.93000000000001 0.85500000000000009 168.96500000000003 29.975000000000005 5837.9600000000009 0.31500000000000006 163.52500000000001 16.500000000000004 29.395000000000003 1.0000000180025095e-35 420.68000000000006 54.520000000000003 0.40000000000000008 0.27000000000000007 1.0000000180025095e-35 9.4950000000000028 2.4550000000000005 0.32500000000000007 0.27000000000000007 10.425000000000002 11.495000000000003
decision_type=2 2 2 2 2 2 2 2 2 2 2 2 2 2 2 2 2 2 2 2 2 2 2 2 2 2 2 2 2 2
left_child=15 14 3 5 -4 6 10 8 -8 -6 12 -12 -3 -7 -2 16 18 -18 19 22 -21 -22 23 24 -1 -24 -27 29 -29 -17
right_child=1 2 4 -5 9 13 7 -9 -10 -11 11 -13 -14 -15 -16 27 17 -19 -20 20 21 -23 25 -25 -26 26 -28 28 -30 -31
leaf_value=-0.003612529142432222 0.0084888799318115337 -6.3729697719739541e-05 0.0074341489847827187 -0.015039318084767175 -0.0013013060209250043 0.011427487254652202 -0.0070017679713990748 0.0033924117341402136 -0.029255248914388094 -0.028725552133151463 -0.0014252755030685542 -0.041360648069530728 0.0076496055763628753 -0.014006615098979739 0.0026724301441462929 0.0078544123581162206 0.010050792431126495 -0.0081761606370842239 -0.0050423623307824308 0.016681946036043008 -0.00066791825310323714 0.027623942020264542 -0.0092086331918835636 -0.0091639124102644871 0.0078222272869868156 0.024869556512970192 0.0019679571217205856 0.017570521228197144 -0.0051323646087452421 -0.01527859118725588
leaf_weight=1527 644 769 767 171 102 234 672 352 55 35 49 23 432 27 1486 27 358 109 1417 154 546 33 72 455 312 65 193 41 283 202
leaf_count=1527 644 769 767 171 102 234 672 352 55 35 49 23 432 27 1486 27 358 109 1417 154 546 33 72 455 312 65 193 41 283 202
internal_value=-6.62391e-13 0.00186326 0.000380256 -0.00113559 0.00504852 -0.000225701 -0.00122687 -0.00474523 -0.00868532 -0.0083075 0.00175529 -0.0141824 0.00271076 0.00879637 0.00443102 -0.00187098 -0.00138031 0.00579654 -0.00208236 -0.000832927 0.00425092 0.000944571 -0.00225307 -0.0031584 -0.00167254 0.00404035 0.00773774 -0.00652129 -0.00225947 -0.0125511
internal_weight=11612 5818 3688 2784 904 2613 2352 1079 727 137 1273 72 1201 261 2130 5794 5241 467 4774 3357 733 579 2624 2294 1839 330 258 553 324 229
internal_count=11612 5818 3688 2784 904 2613 2352 1079 727 137 1273 72 1201 261 2130 5794 5241 467 4774 3357 733 579 2624 2294 1839 330 258 553 324 229
is_linear=0
shrinkage=0.1


Tree=27
num_leaves=31
num_cat=0
split_feature=14 21 5 14 22 3 30 11 4 38 22 16 0 25 42 1 42 21 38 3 1 42 24 8 17 30 42 38 0 22
split_gain=3.44959 3.08786 2.56512 3.63603 2.84778 2.49688 4.91138 2.80602 4.92505 2.71605 2.41947 1.91224 1.82503 4.00234 1.72404 2.18006 2.35711 1.98339 1.77558 1.6532 3.25361 2.52884 1.981 1.73901 1.63635 3.11946 1.6154 1.58159 1.55818 1.53621
threshold=33.240000000000002 15.005000000000001 6.5000000000000009 56.400000000000006 21.995000000000001 43.500000000000007 0.14500000000000005 194.45000000000002 13.500000000000002 0.31000000000000005 10.735000000000001 12.915000000000001 1837.4950000000001 1.7350000000000001 0.10500000000000002 1208.1550000000004 0.28500000000000009 4.3350000000000009 0.10000000000000002 51.500000000000007 152.25500000000002 0.025000000000000005 18.200000000000006 17.065000000000001 13.960000000000003 0.095000000000000015 0.055000000000000007 0.64500000000000013 5378.6500000000005 5.1750000000000007
decision_type=2 2 2 2 2 2 2 2 2 2 2 2 2 2 2 2 2 2 2 2 2 2 2 2 2 2 2 2 2 2
left_child=19 14 5 -4 -5 7 -7 8 -3 11 27 -9 13 -6 17 16 -16 -2 -19 -1 -21 24 -23 -24 -22 -26 -8 -10 -14 -11
right_child=1 2 3 4 12 6 26 9 10 29 -12 -13 28 -15 15 -17 -18 18 -20 20 21 22 23 -25 25 -27 -28 -29 -30 -31
leaf_value=-0.0059512408254817489 0.022078741975646052 -0.0075319778870587308 -0.01453858785361292 0.0047920471615460073 0.0071044831997806243 -0.012153733714225413 0.033236180029569136 -0.029163760617375373 0.0064173140612641165 0.01112487940275568 -0.0016917026010409186 -0.0098452592846150558 0.0045960701152531281 -0.0096907530342055844 0.01150181034122998 0.0078676568217716132 0.043218625993246128 -0.016311390175303416 0.0050412053062069799 -0.0028278005838887786 0.022596476281828742 -0.005095757337080108 -0.00015360532745130751 0.031762006229931312 -0.0041160913524576105 0.024081439087315214 0.0092766439820044354 0.034321541622990656 -0.0099578936628642537 -0.0060875264473235517
leaf_weight=982 36 676 124 2590 204 119 31 85 620 59 554 129 592 466 53 265 42 67 93 2415 102 234 38 31 104 63 305 21 84 428
leaf_count=982 36 676 124 2590 204 119 31 85 620 59 554 129 592 466 53 265 42 67 93 2415 102 234 38 31 104 63 305 21 84 428
internal_value=6.71904e-12 0.00124205 0.000679056 0.00232179 0.00285296 -0.00152428 0.00530418 -0.00273226 -0.000710493 -0.00812846 0.00314835 -0.0175185 -0.000878281 -0.00457698 0.00841819 0.012527 0.025524 0.000871447 -0.00390019 -0.00239178 -0.00122158 0.00555992 -0.000705023 0.0141853 0.0126167 0.0065213 0.0114872 0.00733149 0.00278759 -0.00400225
internal_weight=11612 7643 7087 4060 3936 3027 455 2572 1871 701 1195 214 1346 670 556 360 95 196 160 3969 2987 572 303 69 269 167 336 641 676 487
internal_count=11612 7643 7087 4060 3936 3027 455 2572 1871 701 1195 214 1346 670 556 360 95 196 160 3969 2987 572 303 69 269 167 336 641 676 487
is_linear=0
shrinkage=0.1


Tree=28
num_leaves=31
num_cat=0
split_feature=14 21 30 3 4 8 30 15 0 19 23 38 22 37 20 44 16 2 25 28 1 20 44 26 10 32 11 0 27 23
split_gain=2.79417 2.68984 2.65527 2.02414 3.3736 2.79033 1.86697 2.02066 1.74391 1.4486 1.44254 1.31919 2.25652 1.69798 1.16591 1.59884 1.1598 4.69835 4.1151 4.12878 1.37626 2.59659 1.82633 1.86212 1.31292 1.13894 1.90849 2.03026 1.10998 1.10456
threshold=33.240000000000002 11.125000000000002 0.095000000000000015 48.500000000000007 10.500000000000002 22.130000000000006 0.25500000000000006 1.0000000180025095e-35 114.45000000000002 0.70500000000000007 4.9450000000000012 0.31000000000000005 2.6150000000000007 0.025000000000000005 4.3150000000000004 0.40000000000000008 2.1350000000000002 11.615000000000002 0.49500000000000005 0.075000000000000025 772.11500000000012 6.8150000000000004 0.060000000000000005 4.0050000000000008 5.2650000000000006 0.34500000000000003 40.715000000000011 50.115000000000009 0.82500000000000007 9.7350000000000012
decision_type=2 2 2 2 2 2 2 2 2 2 2 2 2 2 2 2 2 2 2 2 2 2 2 2 2 2 2 2 2 2
left_child=9 28 8 4 10 -6 -7 -8 -3 11 -4 16 13 -13 15 -11 17 -1 24 -20 -18 22 23 -22 -19 26 -14 -28 -2 -12
right_child=1 2 3 -5 5 6 7 -9 -10 14 29 12 25 -15 -16 -17 20 18 19 -21 21 -23 -24 -25 -26 -27 27 -29 -30 -31
leaf_value=-0.003620365584643544 0.014834359753636894 -0.0080251690296625541 0.012037745007017459 0.0088280998457508832 0.0097865329013251123 -0.024027147578696409 0.0028576578235800687 -0.00086363212198008036 -0.043050514764729 -0.0060714509318636357 -0.012338561520335221 -9.8054778451720883e-05 -0.0085794923294867792 0.033392698081528269 -0.013382753630996579 0.012462915673430237 -0.0047583163582682227 0.051050738883869989 -0.0012103714672802705 0.02845841608330852 0.016963851489126682 -0.013245659434924957 0.015817331502643917 -0.022428627957900366 0.019521909464150666 -0.0020808490757879459 0.048420677036046987 0.0056744755879044534 -0.0027577529174529695 -0.0040110211302462756
leaf_weight=806 194 44 44 313 372 30 2897 2940 21 382 231 24 28 41 180 53 1559 28 203 61 20 69 130 30 25 285 20 25 44 513
leaf_count=806 194 44 44 313 372 30 2897 2940 21 382 231 24 28 41 180 53 1559 28 203 61 20 69 130 30 25 285 20 25 44 513
internal_value=-9.27519e-12 0.00111784 0.00078152 0.000959718 0.00060924 0.00138794 0.000855419 0.000983306 -0.019341 -0.0021526 -0.00555609 -0.00133453 0.00388595 0.0210269 -0.00661407 -0.00381324 -0.00208795 0.000436075 0.0107499 0.00564492 -0.00365569 0.00324787 0.0095704 -0.00667164 0.0361786 0.000773764 0.0119185 0.0246728 0.011582 -0.00659659
internal_weight=11612 7643 7405 7340 7027 6239 5867 5837 65 3969 788 3354 423 65 615 435 2931 1123 317 264 1808 249 180 50 53 358 73 45 238 744
internal_count=11612 7643 7405 7340 7027 6239 5867 5837 65 3969 788 3354 423 65 615 435 2931 1123 317 264 1808 249 180 50 53 358 73 45 238 744
is_linear=0
shrinkage=0.1


Tree=29
num_leaves=31
num_cat=0
split_feature=14 9 0 21 16 22 14 0 25 44 9 20 38 17 9 5 3 30 14 0 19 21 35 1 18 38 10 17 39 14
split_gain=2.28264 2.13769 2.59066 2.0565 2.15277 2.02741 2.15709 1.95582 2.09396 1.82044 2.84624 1.80975 1.79091 1.84964 1.83862 1.85458 1.78191 4.05433 2.13906 1.46677 1.30743 1.24352 1.19953 2.72206 1.09427 1.07728 1.02193 1.60375 1.01681 0.971665
threshold=36.005000000000003 91.50500000000001 436.35500000000008 9.5250000000000004 2.8650000000000007 15.120000000000003 52.945000000000007 1739.3650000000002 1.3750000000000002 0.48000000000000004 233.26000000000002 7.6950000000000012 0.56000000000000016 70.960000000000022 164.90500000000003 6.5000000000000009 43.500000000000007 0.18500000000000003 82.00500000000001 4703.0750000000016 0.70500000000000007 16.715000000000003 0.88500000000000012 6805.6400000000003 0.20500000000000004 0.27000000000000007 62.005000000000003 65.010000000000005 0.49500000000000005 41.535000000000004
decision_type=2 2 2 2 2 2 2 2 2 2 2 2 2 2 2 2 2 2 2 2 2 2 2 2 2 2 2 2 2 2
left_child=20 -2 3 -3 -5 6 11 8 -7 10 -10 -4 14 -14 24 -16 18 -18 21 22 26 -6 -9 -24 -8 -21 27 -1 -20 -13
right_child=1 2 5 4 16 7 12 19 9 -11 -12 29 13 -15 15 -17 17 -19 28 25 -22 -23 23 -25 -26 -27 -28 -29 -30 -31
leaf_value=-0.0013130492596191163 0.005636038679711651 0.018740416215732695 0.0089455045200302272 -0.03604096337443307 0.013775832259229251 0.0062465818496420982 0.0051876827593885198 0.0058699383924840929 -0.0042282055970220252 0.0029033046698751898 -0.018572858593580946 -0.028241051598028706 0.023558884547494444 0.006604708152147718 -0.0065800093552997631 0.0023998267833402445 -0.011220616625029255 0.011249775154993119 -0.040163924435720498 -0.022408936939069202 -0.0060129658630128612 -0.005484313086606709 -0.017647210561053853 0.012143299245723972 0.016012477379337944 -0.0014903350542467761 -0.019810491588352058 0.012067348518125388 -0.014412493529759915 -0.0085000983057041454
leaf_weight=3402 894 40 50 21 35 200 734 689 762 242 169 33 81 313 282 1247 132 205 23 35 645 794 71 54 107 83 29 92 46 102
leaf_count=3402 894 40 50 21 35 200 734 689 762 242 169 33 81 313 282 1247 132 205 23 35 645 794 71 54 107 83 29 92 46 102
internal_value=1.74213e-11 0.00104912 0.000423061 -0.00358125 -0.00429213 0.0014108 0.0031475 -0.000811118 -0.00321106 -0.00482362 -0.00683212 -0.00730643 0.0038472 0.0100902 0.00280933 0.000743637 -0.00375227 0.00244832 -0.00607922 0.00272442 -0.00187372 -0.00467116 0.00423486 -0.00477771 0.00656492 -0.00769501 -0.0011159 -0.000960732 -0.0229963 -0.0133257
internal_weight=11612 7444 6550 1296 1256 5254 2949 2305 1373 1173 931 185 2764 394 2370 1529 1235 337 898 932 4168 829 814 125 841 118 3523 3494 69 135
internal_count=11612 7444 6550 1296 1256 5254 2949 2305 1373 1173 931 185 2764 394 2370 1529 1235 337 898 932 4168 829 814 125 841 118 3523 3494 69 135
is_linear=0
shrinkage=0.1


Tree=30
num_leaves=31
num_cat=0
split_feature=14 20 36 30 3 4 26 1 14 42 20 0 14 23 1 38 22 42 42 1 27 11 28 32 26 11 23 8 24 9
split_gain=1.92452 3.10437 1.40746 2.41554 2.46436 3.23389 2.0316 1.96215 1.86725 1.85887 1.82177 1.56559 1.34548 1.2705 1.20351 1.16434 1.2511 2.36268 1.09089 2.16454 2.23764 1.65857 1.3974 1.03858 0.907066 0.851586 0.821843 2.17516 2.15114 1.60895
threshold=15.565000000000003 2.4250000000000003 0.015000000000000001 0.14500000000000005 43.500000000000007 9.5000000000000018 14.180000000000001 1039.9000000000003 26.895000000000003 0.25500000000000006 5.4050000000000011 701.53500000000008 64.145000000000024 12.590000000000002 592.24500000000012 0.14500000000000005 3.5050000000000003 1.0000000180025095e-35 1.0000000180025095e-35 84.070000000000007 0.70500000000000007 34.995000000000012 0.13500000000000004 0.62500000000000011 9.0850000000000026 60.945000000000007 3.5250000000000004 5.5250000000000012 4.3150000000000004 25.035000000000004
decision_type=2 2 2 2 2 2 2 2 2 2 2 2 2 2 2 2 2 2 2 2 2 2 2 2 2 2 2 2 2 2
left_child=18 14 8 12 5 7 9 24 15 -7 -10 -8 -4 -9 -2 -3 17 -17 19 26 22 -22 -21 -14 -5 -19 27 -1 -29 -30
right_child=1 2 3 4 -6 6 11 13 10 -11 -12 -13 23 -15 -16 16 -18 25 -20 20 21 -23 -24 -25 -26 -27 -28 28 29 -31
leaf_value=-0.002181415869291924 0.037397059580932063 -0.0052484442612954554 -0.0041804134726748888 0.013706244374143667 0.0059868143372483022 -0.0044139437246280659 -0.0019849355862074603 -0.025578394706826657 0.0071251973820229374 0.01447131954530273 0.047456072856272971 0.0015614691764357094 -0.0028137641535563905 -0.0057142266893367233 0.011936678495201306 0.035486753833921331 -0.0018424548373064576 -0.0098858972724813685 -0.0059985109619150054 0.009328926256340412 0.02160809465373556 -0.0092842224098387219 0.037390020085232602 -0.030250620076785219 -0.0043525650226237146 0.013249291016197788 -0.005859766144168093 0.03585051801697961 -0.0067580640096874802 0.022129619193653909
leaf_weight=1217 24 91 589 29 801 71 1751 74 24 196 21 4306 22 57 82 38 68 26 637 36 24 63 35 37 680 41 461 29 51 31
leaf_count=1217 24 91 589 29 801 71 1751 74 24 196 21 4306 22 57 82 38 68 26 637 36 24 63 35 37 680 41 461 29 51 31
internal_value=1.06183e-11 0.000688744 0.000486623 0.000248726 0.000726392 0.00013823 0.000912564 -0.0056914 0.00711771 0.0094494 0.0259463 0.00053625 -0.00562259 -0.0169352 0.0177013 0.00390829 0.00872484 0.0155684 -0.00240634 -0.00123109 0.00998848 -0.000762204 0.0231619 -0.0200199 -0.00361391 0.00427146 -0.00222198 -0.000959157 0.0124416 0.00416289
internal_weight=11612 9028 8922 8613 7965 7164 6324 840 309 267 45 6057 648 131 106 264 173 105 2584 1947 158 87 71 59 709 67 1789 1328 111 82
internal_count=11612 9028 8922 8613 7965 7164 6324 840 309 267 45 6057 648 131 106 264 173 105 2584 1947 158 87 71 59 709 67 1789 1328 111 82
is_linear=0
shrinkage=0.1


Tree=31
num_leaves=31
num_cat=0
split_feature=14 21 18 18 2 30 36 18 30 24 1 18 22 42 8 4 15 16 22 38 39 33 36 35 22 14 17 9 1 7
split_gain=1.6088 1.82983 1.37607 2.07454 1.70209 1.43566 1.79725 1.42245 1.38721 1.72066 2.00464 1.50734 1.42667 1.38598 1.31098 2.05304 1.16248 1.37331 1.35352 1.40572 1.10919 1.08606 1.08473 1.95521 1.25098 0.904758 1.52683 0.892975 0.882985 0.875358
threshold=33.240000000000002 13.815000000000003 0.99500000000000011 1.0000000180025095e-35 7357.8050000000012 0.14500000000000005 0.095000000000000015 1.0050000000000001 0.74500000000000011 175.15000000000003 5156.1800000000012 0.20500000000000004 4.9250000000000007 0.075000000000000025 16.835000000000004 9.5000000000000018 1.0000000180025095e-35 3.8050000000000002 2.1750000000000003 0.10000000000000002 0.99500000000000011 0.6150000000000001 0.075000000000000025 0.085000000000000006 2.6450000000000005 26.895000000000003 36.040000000000006 94.760000000000005 1208.1550000000004 63.375000000000007
decision_type=2 2 2 2 2 2 2 2 2 2 2 2 2 2 2 2 2 2 2 2 2 2 2 2 2 2 2 2 2 2
left_child=22 16 3 5 8 27 13 21 11 10 -10 20 -13 -7 -8 -16 18 -18 -2 -20 -5 -4 23 29 -25 26 -26 -3 -29 -1
right_child=1 2 7 4 -6 6 14 -9 9 -11 -12 12 -14 -15 15 -17 17 -19 19 -21 -22 -23 -24 24 25 -27 -28 28 -30 -31
leaf_value=-0.0018259409049324008 0.0093248444031720449 0.001277958213662108 -0.002908823860343546 -0.0057840052804900514 0.009116674913093448 0.038607281141660434 0.01001043029542187 0.00091153614057025109 -0.0056483986398849929 0.0079644971510820228 -0.021058555021137002 0.01156279423366262 -0.00053152665625610788 0.0073585110221756622 -0.0054779674928544962 0.0016887050601620613 -0.00720271538619114 0.019709203296305433 -0.015433366895037687 0.0053872018224663211 0.012215355350377245 0.017704547968084419 -0.0055127487268650027 0.021543111749148618 -0.0029048891043698295 0.015174125707043068 0.021575484052300455 -0.0062181005317446161 -0.02677532853306951 0.019163637482561172
leaf_weight=3036 183 54 32 699 116 22 167 202 260 57 125 120 521 40 443 4092 23 108 59 72 36 127 610 48 169 56 30 48 37 20
leaf_count=3036 183 54 32 699 116 22 167 202 260 57 125 120 521 40 443 4092 23 108 59 72 36 127 610 48 169 56 30 48 37 20
internal_value=-6.35802e-12 0.000848214 0.000463492 0.000145779 -0.00262774 0.0012398 0.00153209 0.00648068 -0.00337711 -0.00825097 -0.0106517 -0.00181152 0.00173262 0.0184468 0.00130906 0.000988631 0.00707121 0.0149842 0.00376992 -0.00399 -0.0049024 0.0135559 -0.00163338 -0.000928885 0.0067332 0.00394545 0.000785619 -0.00877803 -0.0151665 -0.00168857
internal_weight=11612 7643 7198 6837 1934 4903 4764 361 1818 442 385 1376 641 62 4702 4535 445 131 314 131 735 159 3969 3359 303 255 199 139 85 3056
internal_count=11612 7643 7198 6837 1934 4903 4764 361 1818 442 385 1376 641 62 4702 4535 445 131 314 131 735 159 3969 3359 303 255 199 139 85 3056
is_linear=0
shrinkage=0.1


Tree=32
num_leaves=31
num_cat=0
split_feature=17 25 22 7 1 22 38 34 10 5 9 24 30 21 7 1 44 2 39 4 39 17 15 2 16 17 11 1 18 23
split_gain=1.46267 3.05733 2.04669 2.191 1.54537 2.23432 1.7657 2.20795 1.67627 1.48411 2.3496 2.61396 2.13921 1.50558 1.40643 1.36704 1.35142 1.18779 1.18716 1.14999 1.03035 2.41989 0.890522 0.874415 0.743964 0.934656 0.73029 0.720717 0.717719 0.682077
threshold=3.5750000000000006 0.67500000000000016 0.93500000000000016 2.7550000000000003 7182.3900000000003 42.170000000000009 0.56000000000000016 0.15500000000000003 213.89500000000004 15.500000000000002 272.09000000000009 175.15000000000003 0.70500000000000007 36.435000000000009 55.015000000000008 399.12000000000006 0.44000000000000006 1784.6800000000001 0.8650000000000001 27.500000000000004 0.99500000000000011 144.58500000000001 1.9600000000000002 2925.0800000000004 54.425000000000004 194.07500000000002 274.57500000000005 638.84500000000014 0.075000000000000025 1.175
decision_type=2 2 2 2 2 2 2 2 2 2 2 2 2 2 2 2 2 2 2 2 2 2 2 2 2 2 2 2 2 2
left_child=-1 2 3 29 5 6 9 16 24 12 23 -12 13 -3 -7 -5 17 -8 26 -14 21 -9 -4 -11 28 -26 -16 -18 -6 -2
right_child=1 4 22 15 8 14 7 20 -10 10 11 -13 19 -15 18 -17 27 -19 -20 -21 -22 -23 -24 -25 25 -27 -28 -29 -30 -31
leaf_value=-0.0044244892190759763 0.014940196261913688 -0.00030022682226138789 0.005853757268844427 0.042241813588974088 0.0047695755913692755 0.002373343046444158 0.026542934412410592 0.00021892870760590691 -0.012084386021387382 -0.0092038049362599857 -0.0098055666939163705 0.0092425685936623082 -0.022757302169083504 -0.0042515501343382608 -0.015946029803877614 0.010596380350179971 -0.0032261803628334516 0.0094805828081078684 -0.0019359348595819692 -0.0067247986182337634 0.010570877134644737 -0.028462447840419992 -0.012377413028273089 0.0050292323083776999 -0.014595480670970752 0.0051304509627416025 -0.034817557575533523 0.0088160320481375804 0.013096625952422621 -0.0084943235568378291
leaf_weight=702 27 5378 352 43 602 48 68 576 61 45 272 98 57 1175 46 20 79 102 33 208 84 31 29 1058 41 58 37 134 125 23
leaf_count=702 27 5378 352 43 602 48 68 576 61 45 272 98 57 1175 46 20 79 102 33 208 84 31 29 1058 41 58 37 134 125 23
internal_value=1.5049e-11 0.000284692 0.0079715 0.0197906 -7.98701e-05 -0.000451495 -0.000248859 0.00356624 0.00391248 -0.000743059 0.00213538 -0.00476038 -0.00136493 -0.00100873 -0.0120228 0.0321956 0.00965645 0.0163055 -0.0179798 -0.0101733 0.000190623 -0.00124585 0.00446608 0.00444856 0.00509384 -0.00303887 -0.0243586 0.00434967 0.00620132 0.00416032
internal_weight=11612 10910 494 113 10416 9529 9365 1074 887 8291 1473 370 6818 6553 164 63 383 170 116 265 691 607 381 1103 826 99 83 213 727 50
internal_count=11612 10910 494 113 10416 9529 9365 1074 887 8291 1473 370 6818 6553 164 63 383 170 116 265 691 607 381 1103 826 99 83 213 727 50
is_linear=0
shrinkage=0.1


Tree=33
num_leaves=31
num_cat=0
split_feature=14 20 0 17 42 13 20 30 6 22 23 14 19 11 19 0 16 17 22 14 27 19 11 11 22 14 9 25 8 36
split_gain=1.31282 2.68487 1.43384 1.11716 1.22045 2.00234 1.6044 1.84934 1.40824 1.95364 3.57493 1.11992 1.09249 0.997034 0.964749 1.76478 0.948198 2.2124 1.09288 0.884023 0.830562 1.99871 0.827194 0.796972 0.744069 0.577636 1.43053 0.556461 1.16802 0.511036
threshold=10.535000000000002 2.2950000000000004 6.9000000000000012 6.4700000000000015 1.0000000180025095e-35 4.455000000000001 4.5650000000000004 0.095000000000000015 2.1050000000000004 4.2550000000000008 4.5750000000000011 20.075000000000003 0.90500000000000014 28.005000000000006 0.85500000000000009 402.49000000000007 2.1350000000000002 9.0050000000000008 1.5050000000000001 3.0350000000000006 0.42500000000000004 0.29500000000000004 56.855000000000011 125.01000000000001 0.44500000000000006 4.8550000000000013 15.500000000000002 0.67500000000000016 7.9650000000000007 0.8650000000000001
decision_type=2 2 2 2 2 2 2 2 2 2 2 2 2 2 2 2 2 2 2 2 2 2 2 2 2 2 2 2 2 2
left_child=16 12 -3 29 8 14 11 -8 13 10 -10 -7 24 -5 15 -6 17 18 -1 -18 -20 -22 -11 25 -2 26 -21 -26 -29 -4
right_child=1 2 3 4 5 6 7 -9 9 22 -12 -13 -14 -15 -16 -17 19 -19 20 23 21 -23 -24 -25 27 -27 -28 28 -30 -31
leaf_value=-0.0023612605883206253 0.0326714856610461 0.025763552568175575 -0.01275240529794246 0.012024414692731467 -0.005008494255629159 -0.0048216303231547013 -0.0098639608630698861 0.0005002295325042843 0.034675052097210522 -0.0088557599823583261 0.0049413010895809281 0.015039849301731429 -0.0022493915125618084 -0.0074296789482617993 0.014167959026235622 -0.029911758651336037 -0.022490972746163608 0.022272147265512771 -0.0094037169590592395 -0.0083738584319750474 0.00059680324444111353 0.03363460420320432 0.0056624376826008693 0.014811769083497071 0.027710554050281645 -0.0056930059254858539 0.026153004691004757 -0.0063860993167119372 0.01985861243203629 0.00026210033842785792
leaf_weight=1007 27 22 96 34 553 37 176 7903 65 55 107 122 34 117 24 30 28 41 20 30 47 30 137 21 22 692 20 28 43 44
leaf_count=1007 27 22 96 34 553 37 176 7903 65 55 107 122 34 117 24 30 28 41 20 30 47 30 137 21 22 692 20 28 43 44
internal_value=5.61664e-12 0.000475613 0.000263772 0.00020472 0.000337344 6.18088e-05 0.000470226 0.000274447 0.0050696 0.0084376 0.0161779 0.010418 0.013574 -0.00304929 -0.00548109 -0.00628997 -0.00237708 -0.000537657 -0.00138476 -0.00503972 0.00875272 0.0134687 0.00150358 -0.0043993 0.0180573 -0.00494301 0.00543689 0.0138144 0.00950859 -0.00866213
internal_weight=11612 9676 9522 9500 9360 8845 8238 8079 515 364 172 159 154 151 607 583 1936 1145 1104 791 97 77 192 763 120 742 50 93 71 140
internal_count=11612 9676 9522 9500 9360 8845 8238 8079 515 364 172 159 154 151 607 583 1936 1145 1104 791 97 77 192 763 120 742 50 93 71 140
is_linear=0
shrinkage=0.1


Tree=34
num_leaves=31
num_cat=0
split_feature=0 3 4 9 14 1 1 25 38 4 25 27 8 38 21 33 44 2 30 14 39 11 8 4 22 24 15 17 36 34
split_gain=1.14832 2.11591 1.79075 1.69697 1.87829 1.59076 1.5504 2.10178 2.15937 1.52221 1.46801 1.4262 1.89656 1.36321 1.5594 1.84936 1.76578 1.34556 1.33395 1.36909 1.3106 2.07075 1.28471 1.21393 1.43532 1.38064 1.1955 1.24381 1.60154 1.69042
